{"learner":{"attributes":{"scikit_learn":"{\"_estimator_type\": \"classifier\"}"},"feature_names":[],"feature_types":[],"gradient_booster":{"model":{"gbtree_model_param":{"num_parallel_tree":"1","num_trees":"300"},"iteration_indptr":[0,1,2,3,4,5,6,7,8,9,10,11,12,13,14,15,16,17,18,19,20,21,22,23,24,25,26,27,28,29,30,31,32,33,34,35,36,37,38,39,40,41,42,43,44,45,46,47,48,49,50,51,52,53,54,55,56,57,58,59,60,61,62,63,64,65,66,67,68,69,70,71,72,73,74,75,76,77,78,79,80,81,82,83,84,85,86,87,88,89,90,91,92,93,94,95,96,97,98,99,100,101,102,103,104,105,106,107,108,109,110,111,112,113,114,115,116,117,118,119,120,121,122,123,124,125,126,127,128,129,130,131,132,133,134,135,136,137,138,139,140,141,142,143,144,145,146,147,148,149,150,151,152,153,154,155,156,157,158,159,160,161,162,163,164,165,166,167,168,169,170,171,172,173,174,175,176,177,178,179,180,181,182,183,184,185,186,187,188,189,190,191,192,193,194,195,196,197,198,199,200,201,202,203,204,205,206,207,208,209,210,211,212,213,214,215,216,217,218,219,220,221,222,223,224,225,226,227,228,229,230,231,232,233,234,235,236,237,238,239,240,241,242,243,244,245,246,247,248,249,250,251,252,253,254,255,256,257,258,259,260,261,262,263,264,265,266,267,268,269,270,271,272,273,274,275,276,277,278,279,280,281,282,283,284,285,286,287,288,289,290,291,292,293,294,295,296,297,298,299,300],"tree_info":[0,0,0,0,0,0,0,0,0,0,0,0,0,0,0,0,0,0,0,0,0,0,0,0,0,0,0,0,0,0,0,0,0,0,0,0,0,0,0,0,0,0,0,0,0,0,0,0,0,0,0,0,0,0,0,0,0,0,0,0,0,0,0,0,0,0,0,0,0,0,0,0,0,0,0,0,0,0,0,0,0,0,0,0,0,0,0,0,0,0,0,0,0,0,0,0,0,0,0,0,0,0,0,0,0,0,0,0,0,0,0,0,0,0,0,0,0,0,0,0,0,0,0,0,0,0,0,0,0,0,0,0,0,0,0,0,0,0,0,0,0,0,0,0,0,0,0,0,0,0,0,0,0,0,0,0,0,0,0,0,0,0,0,0,0,0,0,0,0,0,0,0,0,0,0,0,0,0,0,0,0,0,0,0,0,0,0,0,0,0,0,0,0,0,0,0,0,0,0,0,0,0,0,0,0,0,0,0,0,0,0,0,0,0,0,0,0,0,0,0,0,0,0,0,0,0,0,0,0,0,0,0,0,0,0,0,0,0,0,0,0,0,0,0,0,0,0,0,0,0,0,0,0,0,0,0,0,0,0,0,0,0,0,0,0,0,0,0,0,0,0,0,0,0,0,0,0,0,0,0,0,0,0,0,0,0,0,0,0,0,0,0,0,0,0,0,0,0,0,0],"trees":[{"base_weights":[-8.781059E-4,-4.515128E-1,1.3770477E0,-7.721921E-1,1.5630847E0,1.5756712E0,-2.9886773E-1,-8.541041E-1,4.022533E-1,1.038074E-1,5.1277584E-1,1.7331616E0,-1.289048E-2,-1.0945094E0,7.927456E-2,5.2498806E-1,5.877982E-1,-1.3093632E0,-4.2769026E-2,9.513222E-1,-3.791271E-1,-1.289048E-2,2.8138608E-1,-4.2656282E-1,4.7269445E-2,-1.3041718E-1,2.4570006E-1,8.248436E-2,4.9243376E-1],"categories":[],"categories_nodes":[],"categories_segments":[],"categories_sizes":[],"default_left":[0,0,0,0,0,0,0,0,0,0,0,0,0,0,0,0,0,0,0,0,0,0,0,0,0,0,0,0,0],"id":0,"left_children":[1,3,5,7,9,11,-1,13,-1,-1,-1,15,-1,17,19,21,-1,23,25,27,-1,-1,-1,-1,-1,-1,-1,-1,-1],"loss_changes":[5.293141E1,4.2705162E1,1.14725685E1,1.0852287E1,1.0365372E0,5.114956E0,0E0,1.2338703E1,0E0,0E0,0E0,3.9017754E0,0E0,9.770512E0,1.5391728E1,1.0280092E0,0E0,6.178219E0,3.1968303E0,3.2438698E0,0E0,0E0,0E0,0E0,0E0,0E0,0E0,0E0,0E0],"parents":[2147483647,0,0,1,1,2,2,3,3,4,4,5,5,7,7,11,11,13,13,14,14,15,15,17,17,18,18,19,19],"right_children":[2,4,6,8,10,12,-1,14,-1,-1,-1,16,-1,18,20,22,-1,24,26,28,-1,-1,-1,-1,-1,-1,-1,-1,-1],"split_conditions":[1E0,1E0,1E0,1E0,1E0,1E0,-2.9886773E-1,1E0,4.022533E-1,1.038074E-1,5.1277584E-1,1E0,-1.289048E-2,1E0,1E0,1E0,5.877982E-1,1E0,1E0,1E0,-3.791271E-1,-1.289048E-2,2.8138608E-1,-4.2656282E-1,4.7269445E-2,-1.3041718E-1,2.4570006E-1,8.248436E-2,4.9243376E-1],"split_indices":[511,674,123,395,807,207,0,501,0,0,0,726,0,792,289,157,0,973,578,389,0,0,0,0,0,0,0,0,0],"split_type":[0,0,0,0,0,0,0,0,0,0,0,0,0,0,0,0,0,0,0,0,0,0,0,0,0,0,0,0,0],"sum_hessian":[8.324253E1,6.3234684E1,2.0007849E1,5.508334E1,8.151346E0,1.8772797E1,1.2350525E0,5.3601276E1,1.4820629E0,1.2350525E0,6.9162936E0,1.7043724E1,1.7290734E0,4.24858E1,1.1115472E1,3.2111363E0,1.3832587E1,3.507549E1,7.4103146E0,6.9162936E0,4.199178E0,1.7290734E0,1.4820629E0,3.2605385E1,2.470105E0,5.434231E0,1.9760839E0,4.199178E0,2.7171154E0],"tree_param":{"num_deleted":"0","num_feature":"1024","num_nodes":"29","size_leaf_vector":"1"}},{"base_weights":[9.773073E-3,-3.2728446E-1,1.0046682E0,-5.7786155E-1,1.1659001E0,1.1979756E0,-1.762424E-1,-6.5175045E-1,4.4049323E-1,8.610131E-2,3.8064012E-1,1.3735086E0,1.513346E-2,-7.613285E-1,6.5741825E-1,4.3286538E-1,8.621816E-2,-5.9649907E-2,6.6320606E-2,-8.4390986E-1,3.288476E-1,3.8146922E-1,-1.355068E-1,-2.9021767E-1,1.6672313E-1],"categories":[],"categories_nodes":[],"categories_segments":[],"categories_sizes":[],"default_left":[0,0,0,0,0,0,0,0,0,0,0,0,0,0,0,0,0,0,0,0,0,0,0,0,0],"id":1,"left_children":[1,3,5,7,9,11,-1,13,-1,-1,-1,15,17,19,21,-1,-1,-1,-1,23,-1,-1,-1,-1,-1],"loss_changes":[2.7377306E1,2.3498608E1,7.06155E0,8.955776E0,4.586172E-1,3.8721924E0,0E0,7.9250164E0,0E0,0E0,0E0,8.147259E-1,1.9527079E-1,8.321793E0,3.6626494E0,0E0,0E0,0E0,0E0,8.614609E0,0E0,0E0,0E0,0E0,0E0],"parents":[2147483647,0,0,1,1,2,2,3,3,4,4,5,5,7,7,11,11,12,12,13,13,14,14,19,19],"right_children":[2,4,6,8,10,12,-1,14,-1,-1,-1,16,18,20,22,-1,-1,-1,-1,24,-1,-1,-1,-1,-1],"split_conditions":[1E0,1E0,1E0,1E0,1E0,1E0,-1.762424E-1,1E0,4.4049323E-1,8.610131E-2,3.8064012E-1,1E0,1E0,1E0,1E0,4.3286538E-1,8.621816E-2,-5.9649907E-2,6.6320606E-2,1E0,3.288476E-1,3.8146922E-1,-1.355068E-1,-2.9021767E-1,1.6672313E-1],"split_indices":[511,674,715,711,807,11,0,585,0,0,0,286,10,395,1019,0,0,0,0,81,0,0,0,0,0],"split_type":[0,0,0,0,0,0,0,0,0,0,0,0,0,0,0,0,0,0,0,0,0,0,0,0,0],"sum_hessian":[7.966066E1,6.000334E1,1.9657316E1,5.1905827E1,8.097518E0,1.7749819E1,1.907496E0,5.0754517E1,1.1513078E0,1.2458205E0,6.851697E0,1.5315776E1,2.4340436E0,4.7220592E1,3.5339227E0,1.4087452E1,1.2283237E0,1.2106583E0,1.2233853E0,4.573304E1,1.4875563E0,2.1802042E0,1.3537185E0,4.2309208E1,3.4238307E0],"tree_param":{"num_deleted":"0","num_feature":"1024","num_nodes":"25","size_leaf_vector":"1"}},{"base_weights":[2.811353E-2,-2.295506E-1,7.888888E-1,-4.2667985E-1,9.38834E-1,9.312442E-1,-2.3949097E-1,-4.9236372E-1,3.5315868E-1,7.162104E-2,1.0264409E0,6.858937E-2,1.1254972E0,-6.050904E-2,-7.8010637E-1,3.3037302E-1,9.746938E-2,-2.3156117E-1,1.9006623E-1,1.2300175E0,3.4826104E-2,-8.452033E-1,3.6086574E-1,-1.2267143E0,1.2812825E-1,1.2903248E0,1.1285078E-1,-3.5090595E-1,1.5148236E-1,-3.8158998E-2,2.4897808E-1,-3.7997988E-1,-8.6260505E-2,2.2632174E-1,-1.974664E-1,4.0683395E-1,1.2963386E-1],"categories":[],"categories_nodes":[],"categories_segments":[],"categories_sizes":[],"default_left":[0,0,0,0,0,0,0,0,0,0,0,0,0,0,0,0,0,0,0,0,0,0,0,0,0,0,0,0,0,0,0,0,0,0,0,0,0],"id":2,"left_children":[1,3,5,7,9,11,-1,13,-1,-1,15,17,19,21,23,-1,-1,-1,-1,25,-1,27,29,31,33,35,-1,-1,-1,-1,-1,-1,-1,-1,-1,-1,-1],"loss_changes":[1.4881828E1,1.3481876E1,5.081317E0,5.7716045E0,2.7699757E-1,2.952569E0,0E0,5.9236383E0,0E0,0E0,2.3291588E-2,2.5725443E0,1.4073086E0,7.0164385E0,1.1819849E1,0E0,0E0,0E0,0E0,1.948185E-1,0E0,3.8285189E0,3.2892842E0,3.6136055E-1,5.610066E0,8.738518E-2,0E0,0E0,0E0,0E0,0E0,0E0,0E0,0E0,0E0,0E0,0E0],"parents":[2147483647,0,0,1,1,2,2,3,3,4,4,5,5,7,7,10,10,11,11,12,12,13,13,14,14,19,19,21,21,22,22,23,23,24,24,25,25],"right_children":[2,4,6,8,10,12,-1,14,-1,-1,16,18,20,22,24,-1,-1,-1,-1,26,-1,28,30,32,34,36,-1,-1,-1,-1,-1,-1,-1,-1,-1,-1,-1],"split_conditions":[1E0,1E0,1E0,1E0,1E0,1E0,-2.3949097E-1,1E0,3.5315868E-1,7.162104E-2,1E0,1E0,1E0,1E0,1E0,3.3037302E-1,9.746938E-2,-2.3156117E-1,1.9006623E-1,1E0,3.4826104E-2,1E0,1E0,1E0,1E0,1E0,1.1285078E-1,-3.5090595E-1,1.5148236E-1,-3.8158998E-2,2.4897808E-1,-3.7997988E-1,-8.6260505E-2,2.2632174E-1,-1.974664E-1,4.0683395E-1,1.2963386E-1],"split_indices":[511,674,123,711,807,726,0,656,0,0,823,33,207,314,157,0,0,0,0,64,0,342,875,22,33,270,0,0,0,0,0,0,0,0,0,0,0],"split_type":[0,0,0,0,0,0,0,0,0,0,0,0,0,0,0,0,0,0,0,0,0,0,0,0,0,0,0,0,0,0,0,0,0,0,0,0,0],"sum_hessian":[7.399439E1,5.5795494E1,1.8198898E1,4.828388E1,7.511618E0,1.7080246E1,1.118653E0,4.705004E1,1.2338347E0,1.2497247E0,6.2618937E0,3.3879313E0,1.3692315E1,1.9297676E1,2.7752365E1,5.143698E0,1.1181953E0,1.2146904E0,2.173241E0,1.22095175E1,1.482797E0,6.390783E0,1.2906893E1,1.8369057E1,9.383308E0,1.0926586E1,1.2829318E0,5.2602367E0,1.1305459E0,6.682509E0,6.224384E0,1.7286316E1,1.0827416E0,5.245903E0,4.137406E0,9.609765E0,1.3168206E0],"tree_param":{"num_deleted":"0","num_feature":"1024","num_nodes":"37","size_leaf_vector":"1"}},{"base_weights":[2.919583E-2,-1.4796218E-1,7.816416E-1,-4.9616864E-1,4.1136733E-1,4.0583182E-2,1.0272115E0,-1.0130258E0,-1.2441256E-1,6.350508E-1,-3.0468118E-1,-1.9261715E-1,1.5448543E-1,3.5221595E-1,4.0688336E-1,-1.1065979E0,-3.1073013E-2,5.183994E-2,-2.99877E-1,7.859325E-1,-1.6232823E-1,-1.0881927E-2,1.878911E-1,-3.6937532E-1,-4.086727E-1,-2.8751588E-1,5.140533E-1,-1.6326976E-1,9.055722E-1,4.2833373E-2,-2.2025749E-1,-1.9180386E-1,2.8829667E-1,2.212392E-1,-1.12638816E-1,3.106343E-1,-1.1473998E-1],"categories":[],"categories_nodes":[],"categories_segments":[],"categories_sizes":[],"default_left":[0,0,0,0,0,0,0,0,0,0,0,0,0,0,0,0,0,0,0,0,0,0,0,0,0,0,0,0,0,0,0,0,0,0,0,0,0],"id":3,"left_children":[1,3,5,7,9,11,13,15,17,19,-1,-1,-1,-1,21,23,-1,25,-1,27,-1,-1,-1,-1,29,31,33,-1,35,-1,-1,-1,-1,-1,-1,-1,-1],"loss_changes":[9.259136E0,1.1181151E1,2.3661222E0,6.635479E0,7.7219114E0,1.7341801E0,4.237919E-1,1.1262798E0,3.3848839E0,3.9358177E0,0E0,0E0,0E0,0E0,3.5572487E-1,6.380825E-1,0E0,3.1180682E0,0E0,3.3479614E0,0E0,0E0,0E0,0E0,7.3036367E-1,5.6925917E0,1.9413712E0,0E0,3.2123842E0,0E0,0E0,0E0,0E0,0E0,0E0,0E0,0E0],"parents":[2147483647,0,0,1,1,2,2,3,3,4,4,5,5,6,6,7,7,8,8,9,9,14,14,15,15,17,17,19,19,24,24,25,25,26,26,28,28],"right_children":[2,4,6,8,10,12,14,16,18,20,-1,-1,-1,-1,22,24,-1,26,-1,28,-1,-1,-1,-1,30,32,34,-1,36,-1,-1,-1,-1,-1,-1,-1,-1],"split_conditions":[1E0,1E0,1E0,1E0,1E0,1E0,1E0,1E0,1E0,1E0,-3.0468118E-1,-1.9261715E-1,1.5448543E-1,3.5221595E-1,1E0,1E0,-3.1073013E-2,1E0,-2.99877E-1,1E0,-1.6232823E-1,-1.0881927E-2,1.878911E-1,-3.6937532E-1,1E0,1E0,1E0,-1.6326976E-1,1E0,4.2833373E-2,-2.2025749E-1,-1.9180386E-1,2.8829667E-1,2.212392E-1,-1.12638816E-1,3.106343E-1,-1.1473998E-1],"split_indices":[609,428,726,314,709,33,233,53,953,289,0,0,0,0,66,325,0,745,0,650,0,0,0,0,64,1009,352,0,548,0,0,0,0,0,0,0,0],"split_type":[0,0,0,0,0,0,0,0,0,0,0,0,0,0,0,0,0,0,0,0,0,0,0,0,0,0,0,0,0,0,0,0,0,0,0,0,0],"sum_hessian":[6.759235E1,5.5361282E1,1.2231063E1,3.4189674E1,2.1171608E1,3.3343196E0,8.896744E0,1.3581781E1,2.0607893E1,1.8782362E1,2.3892446E0,1.2221227E0,2.112197E0,6.472069E0,2.4246747E0,1.2118177E1,1.4636037E0,1.793643E1,2.6714623E0,1.6940874E1,1.841488E0,1.0793768E0,1.3452978E0,9.633437E0,2.4847403E0,1.056073E1,7.375701E0,1.1051196E0,1.5835755E1,1.1306789E0,1.3540612E0,8.619619E0,1.9411101E0,6.0317144E0,1.3439865E0,1.4563405E1,1.2723504E0],"tree_param":{"num_deleted":"0","num_feature":"1024","num_nodes":"37","size_leaf_vector":"1"}},{"base_weights":[9.791488E-3,1.6690111E-1,-6.818255E-1,5.8825854E-2,3.6393568E-1,-9.431164E-1,2.4080095E-1,-3.766846E-2,3.4187025E-1,-3.2984865E-1,1.0465384E-2,2.4071784E-1,-1.3189799E-1,-1.5704842E-1,2.9516634E-1,-3.0318373E-1,2.8136497E-2,-3.7403077E-2,1.9964056E-1],"categories":[],"categories_nodes":[],"categories_segments":[],"categories_sizes":[],"default_left":[0,0,0,0,0,0,0,0,0,0,0,0,0,0,0,0,0,0,0],"id":4,"left_children":[1,3,5,7,-1,9,11,13,-1,-1,-1,-1,-1,15,-1,-1,17,-1,-1],"loss_changes":[6.91582E0,5.787348E0,3.06805E0,5.050125E0,0E0,1.4740047E0,1.6510894E0,5.648124E0,0E0,0E0,0E0,0E0,0E0,6.54013E0,0E0,0E0,3.474618E0,0E0,0E0],"parents":[2147483647,0,0,1,1,2,2,3,3,5,5,6,6,7,7,13,13,16,16],"right_children":[2,4,6,8,-1,10,12,14,-1,-1,-1,-1,-1,16,-1,-1,18,-1,-1],"split_conditions":[1E0,1E0,1E0,1E0,3.6393568E-1,1E0,1E0,1E0,3.4187025E-1,-3.2984865E-1,1.0465384E-2,2.4071784E-1,-1.3189799E-1,1E0,2.9516634E-1,-3.0318373E-1,1E0,-3.7403077E-2,1.9964056E-1],"split_indices":[73,699,973,672,0,927,147,186,0,0,0,0,0,314,0,0,361,0,0],"split_type":[0,0,0,0,0,0,0,0,0,0,0,0,0,0,0,0,0,0,0],"sum_hessian":[6.159932E1,5.0814774E1,1.0784545E1,4.7014374E1,3.800401E0,8.387086E0,2.397459E0,4.404679E1,2.967584E0,7.1237893E0,1.2632965E0,1.2152828E0,1.1821764E0,4.0195744E1,3.8510451E0,6.3713365E0,3.382441E1,2.793161E1,5.892799E0],"tree_param":{"num_deleted":"0","num_feature":"1024","num_nodes":"19","size_leaf_vector":"1"}},{"base_weights":[1.7488306E-2,-7.458905E-2,9.3796605E-1,-1.6273235E-1,2.6623535E-1,2.8067324E-2,3.9607793E-1,-2.5003156E-1,3.0386528E-1,-4.2973682E-1,3.8289523E-1,-4.9978903E-1,2.8050464E-1,5.4782706E-1,-8.4512964E-2,-2.4671842E-1,-2.2166923E-2,1.9277604E-1,9.528216E-3],"categories":[],"categories_nodes":[],"categories_segments":[],"categories_sizes":[],"default_left":[0,0,0,0,0,0,0,0,0,0,0,0,0,0,0,0,0,0,0],"id":5,"left_children":[1,3,5,7,-1,-1,-1,9,-1,11,13,15,-1,17,-1,-1,-1,-1,-1],"loss_changes":[4.992152E0,4.6997848E0,1.6050692E0,5.3906045E0,0E0,0E0,0E0,5.55568E0,0E0,4.0417595E0,1.3612441E0,4.9149942E0,0E0,4.2758417E-1,0E0,0E0,0E0,0E0,0E0],"parents":[2147483647,0,0,1,1,2,2,3,3,7,7,9,9,10,10,11,11,13,13],"right_children":[2,4,6,8,-1,-1,-1,10,-1,12,14,16,-1,18,-1,-1,-1,-1,-1],"split_conditions":[1E0,1E0,1E0,1E0,2.6623535E-1,2.8067324E-2,3.9607793E-1,1E0,3.0386528E-1,1E0,1E0,1E0,2.8050464E-1,1E0,-8.4512964E-2,-2.4671842E-1,-2.2166923E-2,1.9277604E-1,9.528216E-3],"split_indices":[116,186,191,672,0,0,0,843,0,711,114,136,0,980,0,0,0,0,0],"split_type":[0,0,0,0,0,0,0,0,0,0,0,0,0,0,0,0,0,0,0],"sum_hessian":[5.70754E1,5.272061E1,4.3547883E0,4.9056812E1,3.6637986E0,1.7450526E0,2.609736E0,4.639865E1,2.6581633E0,3.6388103E1,1.0010547E1,3.521435E1,1.1737514E0,8.160985E0,1.8495617E0,1.9507248E1,1.5707105E1,6.6878114E0,1.4731736E0],"tree_param":{"num_deleted":"0","num_feature":"1024","num_nodes":"19","size_leaf_vector":"1"}},{"base_weights":[3.3182148E-2,1.23703904E-1,-7.6739633E-1,2.6095414E-1,-4.025738E-1,-2.8996053E-1,-8.555282E-3,-3.892915E-3,6.2238574E-1,-7.02531E-1,2.7170742E-1,-2.2049113E-1,3.0811858E-1,7.6551974E-1,-1.241353E-1,-2.7958265E-1,1.7182249E-1,-3.5565168E-1,2.5302222E-1,9.880189E-1,5.8192383E-3,-1.6023539E-1,1.7619015E-1,3.2538298E-1,3.3205297E-2,-2.2859617E-1,1.475273E-1],"categories":[],"categories_nodes":[],"categories_segments":[],"categories_sizes":[],"default_left":[0,0,0,0,0,0,0,0,0,0,0,0,0,0,0,0,0,0,0,0,0,0,0,0,0,0,0],"id":6,"left_children":[1,3,5,7,9,-1,-1,11,13,15,-1,17,-1,19,-1,-1,-1,21,-1,23,25,-1,-1,-1,-1,-1,-1],"loss_changes":[4.024458E0,3.6860113E0,8.033364E-1,3.8244884E0,4.814815E0,0E0,0E0,5.5939E0,2.8219352E0,3.232698E0,0E0,3.27464E0,0E0,2.562211E0,0E0,0E0,0E0,3.5209007E0,0E0,8.752241E-1,2.0340717E0,0E0,0E0,0E0,0E0,0E0,0E0],"parents":[2147483647,0,0,1,1,2,2,3,3,4,4,7,7,8,8,9,9,11,11,13,13,17,17,19,19,20,20],"right_children":[2,4,6,8,10,-1,-1,12,14,16,-1,18,-1,20,-1,-1,-1,22,-1,24,26,-1,-1,-1,-1,-1,-1],"split_conditions":[1E0,1E0,1E0,1E0,1E0,-2.8996053E-1,-8.555282E-3,1E0,1E0,1E0,2.7170742E-1,1E0,3.0811858E-1,1E0,-1.241353E-1,-2.7958265E-1,1.7182249E-1,1E0,2.5302222E-1,1E0,1E0,-1.6023539E-1,1.7619015E-1,3.2538298E-1,3.3205297E-2,-2.2859617E-1,1.475273E-1],"split_indices":[249,289,845,136,36,0,0,1009,841,451,0,225,0,233,0,0,0,573,0,806,128,0,0,0,0,0,0],"split_type":[0,0,0,0,0,0,0,0,0,0,0,0,0,0,0,0,0,0,0,0,0,0,0,0,0,0,0],"sum_hessian":[5.3222992E1,4.857597E1,4.6470237E0,3.8927937E1,9.648033E0,3.417773E0,1.2292508E0,2.303659E1,1.5891346E1,8.225181E0,1.4228523E0,1.9686655E1,3.349934E0,1.4192088E1,1.6992577E0,7.1993055E0,1.0258753E0,1.8058203E1,1.6284537E0,1.0744677E1,3.447411E0,1.5548928E1,2.5092742E0,9.466228E0,1.2784488E0,1.1160012E0,2.33141E0],"tree_param":{"num_deleted":"0","num_feature":"1024","num_nodes":"27","size_leaf_vector":"1"}},{"base_weights":[3.744275E-2,-3.7766267E-2,8.1453884E-1,-1.04614876E-1,2.664381E-1,9.7069584E-2,2.874482E-1,-1.9510661E-1,6.0851556E-1,-3.0771175E-1,7.131872E-1,6.7678064E-2,2.3176059E-1,-3.710822E-1,2.7724743E-1,2.8073838E-1,3.3988383E-2,-1.3408534E-1,2.021292E-1],"categories":[],"categories_nodes":[],"categories_segments":[],"categories_sizes":[],"default_left":[0,0,0,0,0,0,0,0,0,0,0,0,0,0,0,0,0,0,0],"id":7,"left_children":[1,3,5,7,-1,-1,-1,9,11,13,15,-1,-1,17,-1,-1,-1,-1,-1],"loss_changes":[2.9196126E0,2.9414804E0,6.599426E-4,2.9464324E0,0E0,0E0,0E0,4.2739277E0,1.5086842E-1,3.150716E0,5.181296E-1,0E0,0E0,3.0694041E0,0E0,0E0,0E0,0E0,0E0],"parents":[2147483647,0,0,1,1,2,2,3,3,7,7,8,8,9,9,10,10,13,13],"right_children":[2,4,6,8,-1,-1,-1,10,12,14,16,-1,-1,18,-1,-1,-1,-1,-1],"split_conditions":[1E0,1E0,1E0,1E0,2.664381E-1,9.7069584E-2,2.874482E-1,1E0,1E0,1E0,1E0,6.7678064E-2,2.3176059E-1,1E0,2.7724743E-1,2.8073838E-1,3.3988383E-2,-1.3408534E-1,2.021292E-1],"split_indices":[921,672,816,194,0,0,0,585,80,884,926,0,0,116,0,0,0,0,0],"split_type":[0,0,0,0,0,0,0,0,0,0,0,0,0,0,0,0,0,0,0],"sum_hessian":[4.8428844E1,4.502284E1,3.4060056E0,4.2818405E1,2.2044363E0,1.5070449E0,1.8989607E0,3.8641457E1,4.1769476E0,3.496759E1,3.673865E0,1.9649533E0,2.2119944E0,3.392136E1,1.0462332E0,2.2711523E0,1.4027127E0,3.215848E1,1.7628769E0],"tree_param":{"num_deleted":"0","num_feature":"1024","num_nodes":"19","size_leaf_vector":"1"}},{"base_weights":[6.227174E-2,1.3997291E-1,-6.5679663E-1,-1.8387638E-1,2.0715566E-1,-2.6002133E-1,8.1595505E-4,2.755885E-1,-1.940626E-1,3.9529362E-1,-1.8872716E-1,4.6729583E-1,-2.024952E-1,-3.726704E-1,1.4284572E-1,9.691145E-2,2.4825215E-1,-1.5378468E-1,-1.7070726E-2],"categories":[],"categories_nodes":[],"categories_segments":[],"categories_sizes":[],"default_left":[0,0,0,0,0,0,0,0,0,0,0,0,0,0,0,0,0,0,0],"id":8,"left_children":[1,3,5,-1,7,-1,-1,9,-1,11,13,15,-1,17,-1,-1,-1,-1,-1],"loss_changes":[2.734355E0,2.327571E0,6.652715E-1,0E0,2.5563083E0,0E0,0E0,2.207356E0,0E0,2.6912632E0,1.2221174E0,1.264442E0,0E0,2.9128754E-1,0E0,0E0,0E0,0E0,0E0],"parents":[2147483647,0,0,1,1,2,2,4,4,7,7,9,9,10,10,11,11,13,13],"right_children":[2,4,6,-1,8,-1,-1,10,-1,12,14,16,-1,18,-1,-1,-1,-1,-1],"split_conditions":[1E0,1E0,1E0,-1.8387638E-1,1E0,-2.6002133E-1,8.1595505E-4,1E0,-1.940626E-1,1E0,1E0,1E0,-2.024952E-1,1E0,1.4284572E-1,9.691145E-2,2.4825215E-1,-1.5378468E-1,-1.7070726E-2],"split_indices":[249,650,845,0,104,0,0,147,0,610,823,583,0,947,0,0,0,0,0],"split_type":[0,0,0,0,0,0,0,0,0,0,0,0,0,0,0,0,0,0,0],"sum_hessian":[4.6293816E1,4.2506035E1,3.78778E0,2.8167288E0,3.9689304E1,2.634841E0,1.1529393E0,3.737202E1,2.3172832E0,2.9830168E1,7.541854E0,2.8477736E1,1.352433E0,6.2517567E0,1.2900974E0,2.1688652E1,6.7890844E0,3.899947E0,2.3518097E0],"tree_param":{"num_deleted":"0","num_feature":"1024","num_nodes":"19","size_leaf_vector":"1"}},{"base_weights":[3.0790446E-2,8.500579E-2,-2.3185483E-1,1.350116E-1,-1.9832015E-1,-1.585973E-1,1.9225985E-1,1.2288438E-1,2.671708E-1,2.2597675E-1,-3.0264342E-1,3.5809275E-2,2.7755067E-1,-1.7103542E-1,1.5851684E-1],"categories":[],"categories_nodes":[],"categories_segments":[],"categories_sizes":[],"default_left":[0,0,0,0,0,0,0,0,0,0,0,0,0,0,0],"id":9,"left_children":[1,3,-1,5,-1,-1,7,9,-1,11,13,-1,-1,-1,-1],"loss_changes":[2.0512643E0,1.7156224E0,0E0,1.6854236E0,0E0,0E0,1.785185E0,1.6798689E0,0E0,2.1364846E0,1.9886708E0,0E0,0E0,0E0,0E0],"parents":[2147483647,0,0,1,1,3,3,6,6,7,7,9,9,10,10],"right_children":[2,4,-1,6,-1,-1,8,10,-1,12,14,-1,-1,-1,-1],"split_conditions":[1E0,1E0,-2.3185483E-1,1E0,-1.9832015E-1,-1.585973E-1,1E0,1E0,2.671708E-1,1E0,1E0,3.5809275E-2,2.7755067E-1,-1.7103542E-1,1.5851684E-1],"split_indices":[492,575,0,650,0,0,699,289,0,1009,451,0,0,0,0],"split_type":[0,0,0,0,0,0,0,0,0,0,0,0,0,0,0],"sum_hessian":[4.457231E1,4.259311E1,1.9792025E0,4.0685204E1,1.9079034E0,2.5769215E0,3.8108284E1,3.573415E1,2.3741336E0,2.9142712E1,6.591438E0,2.6302792E1,2.8399208E0,5.224012E0,1.3674259E0],"tree_param":{"num_deleted":"0","num_feature":"1024","num_nodes":"15","size_leaf_vector":"1"}},{"base_weights":[2.1618336E-2,-3.2972295E-2,2.4719624E-1,-9.637484E-2,6.504023E-1,-2.6158765E-1,1.9025785E-1,2.3965308E-1,5.2984636E-2,-4.255176E-1,4.524036E-1,3.3205462E-1,-2.3582672E-1,-6.972094E-1,2.1617039E-1,2.747772E-1,-1.41568E-1,4.3832046E-1,-1.1166154E-1,-2.5372505E-1,2.0100369E-1,2.2105718E-1,-3.897974E-2,1.6468912E-1,-1.1010091E-1],"categories":[],"categories_nodes":[],"categories_segments":[],"categories_sizes":[],"default_left":[0,0,0,0,0,0,0,0,0,0,0,0,0,0,0,0,0,0,0,0,0,0,0,0,0],"id":10,"left_children":[1,3,-1,5,7,9,11,-1,-1,13,15,17,-1,19,21,-1,-1,23,-1,-1,-1,-1,-1,-1,-1],"loss_changes":[1.9413788E0,1.8772116E0,0E0,1.9058418E0,1.1805248E-1,3.1519208E0,2.3252106E0,0E0,0E0,3.8255844E0,2.6626034E0,1.1901011E0,0E0,3.6221757E0,1.3632237E0,0E0,0E0,1.304786E0,0E0,0E0,0E0,0E0,0E0,0E0,0E0],"parents":[2147483647,0,0,1,1,3,3,4,4,5,5,6,6,9,9,10,10,11,11,13,13,14,14,17,17],"right_children":[2,4,-1,6,8,10,12,-1,-1,14,16,18,-1,20,22,-1,-1,24,-1,-1,-1,-1,-1,-1,-1],"split_conditions":[1E0,1E0,2.4719624E-1,1E0,1E0,1E0,1E0,2.3965308E-1,5.2984636E-2,1E0,1E0,1E0,-2.3582672E-1,1E0,1E0,2.747772E-1,-1.41568E-1,1E0,-1.1166154E-1,-2.5372505E-1,2.0100369E-1,2.2105718E-1,-3.897974E-2,1.6468912E-1,-1.1010091E-1],"split_indices":[672,921,0,428,927,1009,709,0,0,745,878,289,0,840,656,0,0,114,0,0,0,0,0,0,0],"split_type":[0,0,0,0,0,0,0,0,0,0,0,0,0,0,0,0,0,0,0,0,0,0,0,0,0],"sum_hessian":[4.270159E1,4.0879208E1,1.8223846E0,3.8194546E1,2.6846645E0,2.428452E1,1.3910026E1,1.5217925E0,1.1628718E0,2.0078575E1,4.205943E0,1.2722249E1,1.1877762E0,1.4045262E1,6.0333133E0,2.807223E0,1.3987198E0,1.1382377E1,1.3398728E0,1.3012896E1,1.032366E0,1.9582518E0,4.075062E0,1.0287333E1,1.0950439E0],"tree_param":{"num_deleted":"0","num_feature":"1024","num_nodes":"25","size_leaf_vector":"1"}},{"base_weights":[2.675535E-2,-2.1254433E-2,2.2427215E-1,-2.2729203E-1,4.0134788E-2,-2.1338992E-2,2.3525956E-1,-7.734054E-2,2.0868236E-1,7.833592E-2,-3.5721523E-1,-2.9342346E-2,2.960506E-1,1.325227E-1,-1.9116026E-1],"categories":[],"categories_nodes":[],"categories_segments":[],"categories_sizes":[],"default_left":[0,0,0,0,0,0,0,0,0,0,0,0,0,0,0],"id":11,"left_children":[1,3,-1,-1,5,7,-1,9,-1,11,13,-1,-1,-1,-1],"loss_changes":[1.4156127E0,1.7886394E0,0E0,0E0,1.7022887E0,1.4595256E0,0E0,1.4821295E0,0E0,3.6596916E0,2.9901972E0,0E0,0E0,0E0,0E0],"parents":[2147483647,0,0,1,1,4,4,5,5,7,7,9,9,10,10],"right_children":[2,4,-1,-1,6,8,-1,10,-1,12,14,-1,-1,-1,-1],"split_conditions":[1E0,1E0,2.2427215E-1,-2.2729203E-1,1E0,1E0,2.3525956E-1,1E0,2.0868236E-1,1E0,1E0,-2.9342346E-2,2.960506E-1,1.325227E-1,-1.9116026E-1],"split_indices":[672,650,0,0,699,186,0,695,0,451,807,0,0,0,0],"split_type":[0,0,0,0,0,0,0,0,0,0,0,0,0,0,0],"sum_hessian":[3.9447025E1,3.789365E1,1.5533758E0,2.0431967E0,3.5850452E1,3.4011757E1,1.8386954E0,3.237503E1,1.6367264E0,2.1266136E1,1.1108894E1,1.8559988E1,2.7061481E0,2.7328353E0,8.37606E0],"tree_param":{"num_deleted":"0","num_feature":"1024","num_nodes":"15","size_leaf_vector":"1"}},{"base_weights":[3.6730584E-2,-2.1718854E-2,5.631415E-1,2.8508473E-2,-2.1980967E-1,-5.02156E-2,2.898177E-1,-8.725458E-2,3.6611837E-1,1.1899751E-1,-5.435343E-1,5.513362E-1,-1.05654836E-1,2.2793576E-1,-5.218942E-1,-7.0836E-1,3.380533E-2,6.676407E-1,3.075286E-2,-1.687787E-1,1.0612341E-1,-2.6124373E-2,-2.1056989E-1,-7.853112E-2,-2.592573E-1,1.8137734E-2,2.4370576E-1],"categories":[],"categories_nodes":[],"categories_segments":[],"categories_sizes":[],"default_left":[0,0,0,0,0,0,0,0,0,0,0,0,0,0,0,0,0,0,0,0,0,0,0,0,0,0,0],"id":12,"left_children":[1,3,5,7,-1,-1,-1,9,11,13,15,17,-1,19,21,23,-1,25,-1,-1,-1,-1,-1,-1,-1,-1,-1],"loss_changes":[1.191067E0,1.2867271E0,1.2996466E0,1.3635237E0,0E0,0E0,0E0,2.528326E0,1.3771812E0,1.4349828E0,9.807315E-1,3.2092166E-1,0E0,1.8705659E0,1.7701066E-1,2.4662066E-1,0E0,4.5545936E-1,0E0,0E0,0E0,0E0,0E0,0E0,0E0,0E0,0E0],"parents":[2147483647,0,0,1,1,2,2,3,3,7,7,8,8,9,9,10,10,11,11,13,13,14,14,15,15,17,17],"right_children":[2,4,6,8,-1,-1,-1,10,12,14,16,18,-1,20,22,24,-1,26,-1,-1,-1,-1,-1,-1,-1,-1,-1],"split_conditions":[1E0,1E0,1E0,1E0,-2.1980967E-1,-5.02156E-2,2.898177E-1,1E0,1E0,1E0,1E0,1E0,-1.05654836E-1,1E0,1E0,1E0,3.380533E-2,1E0,3.075286E-2,-1.687787E-1,1.0612341E-1,-2.6124373E-2,-2.1056989E-1,-7.853112E-2,-2.592573E-1,1.8137734E-2,2.4370576E-1],"split_indices":[116,506,191,157,0,0,0,656,147,715,36,289,0,726,314,695,0,314,0,0,0,0,0,0,0,0,0],"split_type":[0,0,0,0,0,0,0,0,0,0,0,0,0,0,0,0,0,0,0,0,0,0,0,0,0,0,0],"sum_hessian":[3.7313183E1,3.4447124E1,2.8660557E0,3.307074E1,1.3763866E0,1.2266294E0,1.6394265E0,2.517875E1,7.891989E0,1.784946E1,7.3292894E0,6.4589562E0,1.433033E0,1.5806953E1,2.042507E0,5.7944193E0,1.5348703E0,4.7425065E0,1.7164497E0,1.6935508E0,1.4113402E1,1.0324168E0,1.0100901E0,2.1920743E0,3.6023448E0,1.1856308E0,3.5568757E0],"tree_param":{"num_deleted":"0","num_feature":"1024","num_nodes":"27","size_leaf_vector":"1"}},{"base_weights":[1.5296862E-2,-3.752917E-2,5.483878E-1,1.763387E-2,-2.0216486E-1,1.2146536E-3,2.617219E-1,-1.1490128E-1,3.0372843E-1,-2.1020561E-1,5.383147E-1,4.207677E-1,-9.56774E-2,-3.12084E-1,1.796885E-1,4.3359578E-2,1.9931634E-1,6.7514455E-1,5.6428604E-2,-1.2254173E-1,1.523632E-1,2.584628E-1,2.8824909E-2,-9.467129E-2,2.2384846E-1],"categories":[],"categories_nodes":[],"categories_segments":[],"categories_sizes":[],"default_left":[0,0,0,0,0,0,0,0,0,0,0,0,0,0,0,0,0,0,0,0,0,0,0,0,0],"id":13,"left_children":[1,3,5,7,-1,-1,-1,9,11,13,15,17,-1,19,-1,-1,-1,21,23,-1,-1,-1,-1,-1,-1],"loss_changes":[1.0438485E0,1.2052563E0,5.855831E-1,1.2580717E0,0E0,0E0,0E0,1.5307732E0,8.9845717E-1,1.8843963E0,6.1855197E-2,8.2003295E-1,0E0,1.7048491E0,0E0,0E0,0E0,4.9588203E-1,1.4921898E0,0E0,0E0,0E0,0E0,0E0,0E0],"parents":[2147483647,0,0,1,1,2,2,3,3,7,7,8,8,9,9,10,10,11,11,13,13,17,17,18,18],"right_children":[2,4,6,8,-1,-1,-1,10,12,14,16,18,-1,20,-1,-1,-1,22,24,-1,-1,-1,-1,-1,-1],"split_conditions":[1E0,1E0,1E0,1E0,-2.0216486E-1,1.2146536E-3,2.617219E-1,1E0,1E0,1E0,1E0,1E0,-9.56774E-2,1E0,1.796885E-1,4.3359578E-2,1.9931634E-1,1E0,1E0,-1.2254173E-1,1.523632E-1,2.584628E-1,2.8824909E-2,-9.467129E-2,2.2384846E-1],"split_indices":[325,222,314,745,0,0,0,921,926,1009,263,289,0,341,0,0,0,94,36,0,0,0,0,0,0],"split_type":[0,0,0,0,0,0,0,0,0,0,0,0,0,0,0,0,0,0,0,0,0,0,0,0,0],"sum_hessian":[3.5336243E1,3.299613E1,2.3401127E0,3.1258722E1,1.7374086E0,1.2509906E0,1.089122E0,2.1771374E1,9.4873495E0,1.9591211E1,2.1801627E0,8.259127E0,1.2282228E0,1.7946028E1,1.6451836E0,1.0492616E0,1.1309011E0,4.361157E0,3.89797E0,1.6507383E1,1.4386439E0,2.9301312E0,1.4310255E0,2.8846438E0,1.013326E0],"tree_param":{"num_deleted":"0","num_feature":"1024","num_nodes":"25","size_leaf_vector":"1"}},{"base_weights":[3.652749E-2,-9.737933E-3,1.8662256E-1,4.1327473E-2,-2.1041746E-1,1.11735836E-1,-4.474188E-1,4.3849736E-2,1.9995338E-1,-1.715652E-1,-1.925762E-2,-2.74896E-2,2.0277318E-1,-2.8584419E-2,1.8359384E-1],"categories":[],"categories_nodes":[],"categories_segments":[],"categories_sizes":[],"default_left":[0,0,0,0,0,0,0,0,0,0,0,0,0,0,0],"id":14,"left_children":[1,3,-1,5,-1,7,9,11,-1,-1,-1,13,-1,-1,-1],"loss_changes":[9.4702584E-1,1.2007219E0,0E0,1.1456186E0,0E0,1.0490127E0,1.6404867E-1,1.2170382E0,0E0,0E0,0E0,1.135318E0,0E0,0E0,0E0],"parents":[2147483647,0,0,1,1,3,3,5,5,6,6,7,7,11,11],"right_children":[2,4,-1,6,-1,8,10,12,-1,-1,-1,14,-1,-1,-1],"split_conditions":[1E0,1E0,1.8662256E-1,1E0,-2.1041746E-1,1E0,1E0,1E0,1.9995338E-1,-1.715652E-1,-1.925762E-2,1E0,2.0277318E-1,-2.8584419E-2,1.8359384E-1],"split_indices":[186,456,0,946,0,736,90,585,0,0,0,225,0,0,0],"split_type":[0,0,0,0,0,0,0,0,0,0,0,0,0,0,0],"sum_hessian":[3.3734104E1,3.2175236E1,1.558867E0,3.083864E1,1.3365961E0,2.7629711E1,3.2089293E0,2.557876E1,2.0509508E0,2.0506341E0,1.158295E0,2.3844042E1,1.7347172E0,2.2327993E1,1.5160499E0],"tree_param":{"num_deleted":"0","num_feature":"1024","num_nodes":"15","size_leaf_vector":"1"}},{"base_weights":[3.662504E-2,-7.3110936E-3,1.9590235E-1,-1.9565243E-1,4.4437416E-2,-5.2707974E-4,1.92963E-1,-6.2965676E-2,5.2733856E-1,-1.2385965E-1,1.732372E-1,2.2893123E-1,2.5248982E-2,-5.6038793E-2,1.8452135E-1],"categories":[],"categories_nodes":[],"categories_segments":[],"categories_sizes":[],"default_left":[0,0,0,0,0,0,0,0,0,0,0,0,0,0,0],"id":15,"left_children":[1,3,-1,-1,5,7,-1,9,11,13,-1,-1,-1,-1,-1],"loss_changes":[9.222787E-1,1.1173368E0,0E0,0E0,8.38401E-1,1.0204134E0,0E0,1.1508927E0,2.7794844E-1,1.328587E0,0E0,0E0,0E0,0E0,0E0],"parents":[2147483647,0,0,1,1,4,4,5,5,7,7,8,8,9,9],"right_children":[2,4,-1,-1,6,8,-1,10,12,14,-1,-1,-1,-1,-1],"split_conditions":[1E0,1E0,1.9590235E-1,-1.9565243E-1,1E0,1E0,1.92963E-1,1E0,1E0,1E0,1.732372E-1,2.2893123E-1,2.5248982E-2,-5.6038793E-2,1.8452135E-1],"split_indices":[672,650,0,0,884,116,0,908,394,186,0,0,0,0,0],"split_type":[0,0,0,0,0,0,0,0,0,0,0,0,0,0,0],"sum_hessian":[3.2879414E1,3.161408E1,1.2653317E0,1.4865594E0,3.0127522E1,2.895247E1,1.1750501E0,2.6677624E1,2.2748468E0,2.509782E1,1.5798037E0,1.0136777E0,1.261169E0,2.3816525E1,1.2812965E0],"tree_param":{"num_deleted":"0","num_feature":"1024","num_nodes":"15","size_leaf_vector":"1"}},{"base_weights":[4.9750514E-2,8.62697E-2,-1.4477476E-1,1.7110787E-1,-2.010195E-1,1.0840261E-1,2.3730963E-1,-3.9637196E-1,1.419969E-1,2.0443381E-1,-4.2464012E-1,-4.8429984E-1,9.5665455E-3,1.16262294E-1,1.9960652E-1,-1.7966777E-1,-1.2350513E-2,-5.748815E-1,-2.5724169E-2,-4.5957146E-3,1.5032974E-1,-4.1869923E-2,-2.2004849E-1],"categories":[],"categories_nodes":[],"categories_segments":[],"categories_sizes":[],"default_left":[0,0,0,0,0,0,0,0,0,0,0,0,0,0,0,0,0,0,0,0,0,0,0],"id":16,"left_children":[1,3,-1,5,7,9,-1,11,-1,13,15,17,-1,19,-1,-1,-1,21,-1,-1,-1,-1,-1],"loss_changes":[6.828127E-1,8.073368E-1,0E0,8.8696134E-1,1.2006185E0,1.3093684E0,0E0,2.6046073E-1,0E0,7.7252895E-1,2.4068254E-1,1.4782465E-1,0E0,9.5794344E-1,0E0,0E0,0E0,1.9271266E-1,0E0,0E0,0E0,0E0,0E0],"parents":[2147483647,0,0,1,1,3,3,4,4,5,5,7,7,9,9,10,10,11,11,13,13,17,17],"right_children":[2,4,-1,6,8,10,-1,12,-1,14,16,18,-1,20,-1,-1,-1,22,-1,-1,-1,-1,-1],"split_conditions":[1E0,1E0,-1.4477476E-1,1E0,1E0,1E0,2.3730963E-1,1E0,1.419969E-1,1E0,1E0,1E0,9.5665455E-3,1E0,1.9960652E-1,-1.7966777E-1,-1.2350513E-2,1E0,-2.5724169E-2,-4.5957146E-3,1.5032974E-1,-4.1869923E-2,-2.2004849E-1],"split_indices":[104,147,0,341,823,750,0,730,0,202,779,511,0,609,0,0,0,807,0,0,0,0,0],"split_type":[0,0,0,0,0,0,0,0,0,0,0,0,0,0,0,0,0,0,0,0,0,0,0],"sum_hessian":[3.1981905E1,3.0712877E1,1.2690289E0,2.4023115E1,6.6897607E0,2.2883333E1,1.1397823E0,5.506713E0,1.1830479E0,1.991245E1,2.9708834E0,4.4601316E0,1.0465811E0,1.7766132E1,2.146318E0,1.6564262E0,1.3144572E0,3.2736783E0,1.1864535E0,1.395493E1,3.8112016E0,1.3763089E0,1.8973694E0],"tree_param":{"num_deleted":"0","num_feature":"1024","num_nodes":"23","size_leaf_vector":"1"}},{"base_weights":[3.9120656E-2,-7.227044E-3,1.4624494E-1,3.741022E-2,-1.5630493E-1,-6.753071E-2,2.645464E-1,-1.4730306E-1,1.6896226E-1,5.6168246E-1,3.3274252E-2,-2.3263867E-1,1.4854708E-1,1.9896348E-1,3.9496142E-2,-1.5054676E-1,3.7240323E-1,-1.746839E-1,1.776901E-2,3.7441174E-3,2.0837699E-1],"categories":[],"categories_nodes":[],"categories_segments":[],"categories_sizes":[],"default_left":[0,0,0,0,0,0,0,0,0,0,0,0,0,0,0,0,0,0,0,0,0],"id":17,"left_children":[1,3,-1,5,-1,7,9,11,-1,13,15,17,-1,-1,-1,-1,19,-1,-1,-1,-1],"loss_changes":[6.7238253E-1,7.111096E-1,0E0,7.0145804E-1,0E0,1.1100415E0,6.1808866E-1,1.1521275E0,0E0,8.700907E-2,1.3253417E0,1.8077285E0,0E0,0E0,0E0,0E0,5.031899E-1,0E0,0E0,0E0,0E0],"parents":[2147483647,0,0,1,1,3,3,5,5,6,6,7,7,9,9,10,10,11,11,16,16],"right_children":[2,4,-1,6,-1,8,10,12,-1,14,16,18,-1,-1,-1,-1,20,-1,-1,-1,-1],"split_conditions":[1E0,1E0,1.4624494E-1,1E0,-1.5630493E-1,1E0,1E0,1E0,1.6896226E-1,1E0,1E0,1E0,1.4854708E-1,1.9896348E-1,3.9496142E-2,-1.5054676E-1,1E0,-1.746839E-1,1.776901E-2,3.7441174E-3,2.0837699E-1],"split_indices":[325,222,0,745,0,1009,656,840,0,94,157,80,0,0,0,0,389,0,0,0,0],"split_type":[0,0,0,0,0,0,0,0,0,0,0,0,0,0,0,0,0,0,0,0,0],"sum_hessian":[3.1186775E1,2.9156698E1,2.0300772E0,2.7679161E1,1.4775369E0,1.9412794E1,8.266367E0,1.7913633E1,1.49916E0,2.9927053E0,5.2736616E0,1.637632E1,1.5373131E0,1.9824111E0,1.0102942E0,1.8596547E0,3.414007E0,6.9980626E0,9.378258E0,2.1032028E0,1.3108042E0],"tree_param":{"num_deleted":"0","num_feature":"1024","num_nodes":"21","size_leaf_vector":"1"}},{"base_weights":[4.2646263E-2,4.5628087E-3,1.7366627E-1,-1.07854776E-1,2.4720702E-1,-5.915121E-3,-2.0216808E-1,-6.134238E-2,4.9976516E-1,1.0841369E-1,-3.2159403E-1,-3.3367217E-1,1.444536E-1,2.3310387E-3,2.4797687E-1,1.9267344E-1,-1.2513484E-1,2.1208415E-2,-5.5775267E-1,-1.7804016E-1,3.8101595E-2,5.7975366E-4,1.5076907E-1,-5.6635637E-2,6.498549E-2,-2.1879303E-1,-4.1847594E-2],"categories":[],"categories_nodes":[],"categories_segments":[],"categories_sizes":[],"default_left":[0,0,0,0,0,0,0,0,0,0,0,0,0,0,0,0,0,0,0,0,0,0,0,0,0,0,0],"id":18,"left_children":[1,3,-1,5,7,9,-1,11,13,15,17,19,-1,-1,-1,21,-1,23,25,-1,-1,-1,-1,-1,-1,-1,-1],"loss_changes":[6.32547E-1,8.463166E-1,0E0,1.2210882E0,7.957114E-1,7.20595E-1,0E0,9.456217E-1,8.792366E-1,7.311286E-1,4.4119775E-1,5.692434E-1,0E0,0E0,0E0,7.8810126E-1,0E0,1.6920099E-1,1.262334E-1,0E0,0E0,0E0,0E0,0E0,0E0,0E0,0E0],"parents":[2147483647,0,0,1,1,3,3,4,4,5,5,7,7,8,8,9,9,10,10,11,11,15,15,17,17,18,18],"right_children":[2,4,-1,6,8,10,-1,12,14,16,18,20,-1,-1,-1,22,-1,24,26,-1,-1,-1,-1,-1,-1,-1,-1],"split_conditions":[1E0,1E0,1.7366627E-1,1E0,1E0,1E0,-2.0216808E-1,1E0,1E0,1E0,1E0,1E0,1.444536E-1,2.3310387E-3,2.4797687E-1,1E0,-1.2513484E-1,1E0,1E0,-1.7804016E-1,3.8101595E-2,5.7975366E-4,1.5076907E-1,-5.6635637E-2,6.498549E-2,-2.1879303E-1,-4.1847594E-2],"split_indices":[672,792,0,233,80,147,0,578,1019,935,807,875,0,0,0,428,0,695,121,0,0,0,0,0,0,0,0],"split_type":[0,0,0,0,0,0,0,0,0,0,0,0,0,0,0,0,0,0,0,0,0,0,0,0,0,0,0],"sum_hessian":[3.0103262E1,2.904875E1,1.0545117E0,2.0231129E1,8.817623E0,1.7999918E1,2.2312102E0,4.309652E0,4.507971E0,1.3696172E1,4.3037457E0,3.1265275E0,1.1831245E0,2.2079463E0,2.3000247E0,1.2349511E1,1.3466606E0,2.1267698E0,2.1769762E0,1.8148243E0,1.3117031E0,8.267194E0,4.0823174E0,1.041471E0,1.0852988E0,1.0164051E0,1.160571E0],"tree_param":{"num_deleted":"0","num_feature":"1024","num_nodes":"27","size_leaf_vector":"1"}},{"base_weights":[3.0835394E-2,8.0603436E-2,-1.24491446E-1,2.7761534E-2,2.1474388E-1,-3.3794723E-2,4.2639345E-1,2.4378074E-2,-1.8790288E-1,1.6421175E-1,1.7812064E-2,8.860895E-2,-3.5310706E-1,4.9202034E-4,1.9090633E-1,-1.7308682E-1,4.3607195E-4],"categories":[],"categories_nodes":[],"categories_segments":[],"categories_sizes":[],"default_left":[0,0,0,0,0,0,0,0,0,0,0,0,0,0,0,0,0],"id":19,"left_children":[1,3,-1,5,-1,7,9,11,-1,-1,-1,13,15,-1,-1,-1,-1],"loss_changes":[7.010637E-1,9.1681194E-1,0E0,6.721142E-1,0E0,8.4753335E-1,1.2995392E-1,5.8770365E-1,0E0,0E0,0E0,9.7126895E-1,2.8161108E-1,0E0,0E0,0E0,0E0],"parents":[2147483647,0,0,1,1,3,3,5,5,6,6,7,7,11,11,12,12],"right_children":[2,4,-1,6,-1,8,10,12,-1,-1,-1,14,16,-1,-1,-1,-1],"split_conditions":[1E0,1E0,-1.24491446E-1,1E0,2.1474388E-1,1E0,1E0,1E0,-1.8790288E-1,1.6421175E-1,1.7812064E-2,1E0,1E0,4.9202034E-4,1.9090633E-1,-1.7308682E-1,4.3607195E-4],"split_indices":[119,908,0,585,0,525,779,114,0,0,0,997,511,0,0,0,0],"split_type":[0,0,0,0,0,0,0,0,0,0,0,0,0,0,0,0,0],"sum_hessian":[2.9090483E1,2.6906004E1,2.1844792E0,2.5803188E1,1.102815E0,2.314447E1,2.658718E0,2.1948553E1,1.1959172E0,1.6300238E0,1.0286942E0,1.9410954E1,2.5376003E0,1.7616817E1,1.7941353E0,1.1710347E0,1.3665655E0],"tree_param":{"num_deleted":"0","num_feature":"1024","num_nodes":"17","size_leaf_vector":"1"}},{"base_weights":[2.6229145E-2,-8.091477E-3,1.4773105E-1,4.5797203E-2,-3.8437167E-1,-2.8310241E-2,3.8786596E-1,-1.4653823E-1,-2.003432E-2,-8.279645E-2,1.6308837E-1,2.1851315E-1,-8.790003E-2,-2.3349018E-1,1.9723569E-1,-1.0014621E-1,1.3777766E-1,1.0822184E-1,-9.1409355E-2],"categories":[],"categories_nodes":[],"categories_segments":[],"categories_sizes":[],"default_left":[0,0,0,0,0,0,0,0,0,0,0,0,0,0,0,0,0,0,0],"id":20,"left_children":[1,3,-1,5,7,9,11,-1,-1,13,-1,-1,-1,15,17,-1,-1,-1,-1],"loss_changes":[4.7557175E-1,5.94209E-1,0E0,6.6417897E-1,8.866048E-2,7.340499E-1,1.2929549E0,0E0,0E0,9.3458056E-1,0E0,0E0,0E0,1.1365826E0,7.5896E-1,0E0,0E0,0E0,0E0],"parents":[2147483647,0,0,1,1,3,3,4,4,5,5,6,6,9,9,13,13,14,14],"right_children":[2,4,-1,6,8,10,12,-1,-1,14,-1,-1,-1,16,18,-1,-1,-1,-1],"split_conditions":[1E0,1E0,1.4773105E-1,1E0,1E0,1E0,1E0,-1.4653823E-1,-2.003432E-2,1E0,1.6308837E-1,2.1851315E-1,-8.790003E-2,1E0,1E0,-1.0014621E-1,1.3777766E-1,1.0822184E-1,-9.1409355E-2],"split_indices":[186,946,0,451,90,772,695,0,0,136,0,0,0,884,935,0,0,0,0],"split_type":[0,0,0,0,0,0,0,0,0,0,0,0,0,0,0,0,0,0,0],"sum_hessian":[2.8473213E1,2.7436104E1,1.0371085E0,2.4767355E1,2.6687484E0,2.1111004E1,3.6563528E0,1.6047709E0,1.0639775E0,2.0055622E1,1.0553818E0,2.3908653E0,1.2654874E0,1.31470175E1,6.9086037E0,1.1936397E1,1.2106212E0,5.423282E0,1.4853219E0],"tree_param":{"num_deleted":"0","num_feature":"1024","num_nodes":"19","size_leaf_vector":"1"}},{"base_weights":[3.074128E-2,-1.3718586E-2,1.13042295E-1,3.9538138E-2,-1.6097729E-1,-6.449095E-2,3.2187188E-1,-2.109057E-1,2.5690743E-1,4.7681723E-2,1.6887668E-1,-3.2753915E-1,1.1258035E-1,4.718469E-2,1.6002129E-1,-7.029398E-2,1.3099873E-1,-1.22738875E-1,6.88653E-2,-3.56475E-2,8.5234195E-2],"categories":[],"categories_nodes":[],"categories_segments":[],"categories_sizes":[],"default_left":[0,0,0,0,0,0,0,0,0,0,0,0,0,0,0,0,0,0,0,0,0],"id":21,"left_children":[1,3,-1,5,-1,7,9,11,13,15,-1,17,-1,19,-1,-1,-1,-1,-1,-1,-1],"loss_changes":[4.4699088E-1,7.566802E-1,0E0,7.5213313E-1,0E0,9.496716E-1,4.2733186E-1,1.054284E0,3.4634027E-1,5.747953E-1,0E0,6.3463485E-1,0E0,2.2020844E-1,0E0,0E0,0E0,0E0,0E0,0E0,0E0],"parents":[2147483647,0,0,1,1,3,3,5,5,6,6,7,7,8,8,9,9,11,11,13,13],"right_children":[2,4,-1,6,-1,8,10,12,14,16,-1,18,-1,20,-1,-1,-1,-1,-1,-1,-1],"split_conditions":[1E0,1E0,1.13042295E-1,1E0,-1.6097729E-1,1E0,1E0,1E0,1E0,1E0,1.6887668E-1,1E0,1.1258035E-1,1E0,1.6002129E-1,-7.029398E-2,1.3099873E-1,-1.22738875E-1,6.88653E-2,-3.56475E-2,8.5234195E-2],"split_indices":[997,855,0,792,0,157,80,1009,428,578,0,341,0,585,0,0,0,0,0,0,0],"split_type":[0,0,0,0,0,0,0,0,0,0,0,0,0,0,0,0,0,0,0,0,0],"sum_hessian":[2.7715704E1,2.5411406E1,2.3042982E0,2.3901339E1,1.5100679E0,1.8029676E1,5.871661E0,1.26229925E1,5.4066844E0,3.3073838E0,2.5642776E0,1.0896162E1,1.7268306E0,3.7403114E0,1.666373E0,2.147881E0,1.1595027E0,9.735861E0,1.1603012E0,2.4924212E0,1.2478904E0],"tree_param":{"num_deleted":"0","num_feature":"1024","num_nodes":"21","size_leaf_vector":"1"}},{"base_weights":[3.8364474E-2,-2.2274256E-3,1.6885121E-1,-1.6229211E-1,4.0043753E-2,9.416132E-2,-3.6470813E-1,1.795752E-2,2.0026438E-1,-1.7962052E-1,4.524879E-3,9.085145E-2,-1.5847678E-1,5.406801E-2,-8.767805E-2],"categories":[],"categories_nodes":[],"categories_segments":[],"categories_sizes":[],"default_left":[0,0,0,0,0,0,0,0,0,0,0,0,0,0,0],"id":22,"left_children":[1,3,-1,-1,5,7,9,11,-1,-1,-1,13,-1,-1,-1],"loss_changes":[5.968329E-1,6.3567704E-1,0E0,0E0,6.0234696E-1,1.0221636E0,2.990917E-1,9.207141E-1,0E0,0E0,0E0,7.44046E-1,0E0,0E0,0E0],"parents":[2147483647,0,0,1,1,4,4,5,5,6,6,7,7,11,11],"right_children":[2,4,-1,-1,6,8,10,12,-1,-1,-1,14,-1,-1,-1],"split_conditions":[1E0,1E0,1.6885121E-1,-1.6229211E-1,1E0,1E0,1E0,1E0,2.0026438E-1,-1.7962052E-1,4.524879E-3,1E0,-1.5847678E-1,5.406801E-2,-8.767805E-2],"split_indices":[672,650,0,0,114,997,1019,935,0,0,0,750,0,0,0],"split_type":[0,0,0,0,0,0,0,0,0,0,0,0,0,0,0],"sum_hessian":[2.6975449E1,2.5961866E1,1.0135815E0,1.0304962E0,2.4931372E1,2.2667908E1,2.2634642E0,2.0919056E1,1.7488507E0,1.043794E0,1.21967E0,1.9191553E1,1.7275034E0,1.5990691E1,3.2008615E0],"tree_param":{"num_deleted":"0","num_feature":"1024","num_nodes":"15","size_leaf_vector":"1"}},{"base_weights":[2.2215646E-2,-1.7660039E-2,1.2374807E-1,-5.6709617E-2,1.285293E-1,-1.803517E-1,1.3373135E-1,-2.8251025E-1,2.751265E-1,3.0489638E-2,1.5924029E-1,-4.7615895E-1,1.2424874E-1,1.4999506E-1,-2.7188119E-2,-1.2903999E-1,3.6145806E-1,-1.8194771E-1,1.9948773E-2,1.2809443E-1,-3.0129671E-2,-9.387318E-2,1.1292648E-1,2.04049E-1,-5.0768577E-2],"categories":[],"categories_nodes":[],"categories_segments":[],"categories_sizes":[],"default_left":[0,0,0,0,0,0,0,0,0,0,0,0,0,0,0,0,0,0,0,0,0,0,0,0,0],"id":23,"left_children":[1,3,-1,5,-1,7,9,11,13,15,-1,17,19,-1,-1,21,23,-1,-1,-1,-1,-1,-1,-1,-1],"loss_changes":[4.3420506E-1,4.745665E-1,0E0,6.0456216E-1,0E0,7.9302895E-1,4.0516675E-1,1.0870692E0,3.1859228E-1,5.333606E-1,0E0,6.8024206E-1,3.8310853E-1,0E0,0E0,7.6437056E-1,6.666837E-1,0E0,0E0,0E0,0E0,0E0,0E0,0E0,0E0],"parents":[2147483647,0,0,1,1,3,3,5,5,6,6,7,7,8,8,9,9,11,11,12,12,15,15,16,16],"right_children":[2,4,-1,6,-1,8,10,12,14,16,-1,18,20,-1,-1,22,24,-1,-1,-1,-1,-1,-1,-1,-1],"split_conditions":[1E0,1E0,1.2374807E-1,1E0,1.285293E-1,1E0,1E0,1E0,1E0,1E0,1.5924029E-1,1E0,1E0,1.4999506E-1,-2.7188119E-2,1E0,1E0,-1.8194771E-1,1.9948773E-2,1.2809443E-1,-3.0129671E-2,-9.387318E-2,1.1292648E-1,2.04049E-1,-5.0768577E-2],"split_indices":[921,884,0,428,0,1009,511,745,580,157,0,86,656,0,0,591,841,0,0,0,0,0,0,0,0],"split_type":[0,0,0,0,0,0,0,0,0,0,0,0,0,0,0,0,0,0,0,0,0,0,0,0,0],"sum_hessian":[2.6432463E1,2.484839E1,1.5840731E0,2.3650927E1,1.1974627E0,1.4372615E1,9.278313E0,1.2049746E1,2.3228693E0,8.218273E0,1.0600393E0,8.047769E0,4.001977E0,1.2112343E0,1.1116351E0,5.9570417E0,2.2612317E0,6.3943515E0,1.6534172E0,1.3212924E0,2.6806846E0,4.647406E0,1.3096354E0,1.2368008E0,1.0244308E0],"tree_param":{"num_deleted":"0","num_feature":"1024","num_nodes":"25","size_leaf_vector":"1"}},{"base_weights":[4.0355235E-2,-2.5968165E-3,1.3056548E-1,4.062935E-2,-1.40827E-1,-1.4100989E-2,1.2445972E-1,-6.2176295E-2,1.11549936E-1,-7.4592E-5,-1.2806715E-1,-3.1652376E-2,1.2839581E-1],"categories":[],"categories_nodes":[],"categories_segments":[],"categories_sizes":[],"default_left":[0,0,0,0,0,0,0,0,0,0,0,0,0],"id":24,"left_children":[1,3,-1,5,-1,7,-1,9,-1,11,-1,-1,-1],"loss_changes":[4.4506434E-1,5.1550376E-1,0E0,4.858818E-1,0E0,4.2042485E-1,0E0,4.5065323E-1,0E0,8.576788E-1,0E0,0E0,0E0],"parents":[2147483647,0,0,1,1,3,3,5,5,7,7,9,9],"right_children":[2,4,-1,6,-1,8,-1,10,-1,12,-1,-1,-1],"split_conditions":[1E0,1E0,1.3056548E-1,1E0,-1.40827E-1,1E0,1.2445972E-1,1E0,1.11549936E-1,1E0,-1.2806715E-1,-3.1652376E-2,1.2839581E-1],"split_indices":[325,222,0,285,0,194,0,114,0,81,0,0,0],"split_type":[0,0,0,0,0,0,0,0,0,0,0,0,0],"sum_hessian":[2.517509E1,2.360124E1,1.5738509E0,2.2436666E1,1.1645737E0,2.0413593E1,2.0230727E0,1.8898346E1,1.5152481E0,1.7003311E1,1.8950338E0,1.4247585E1,2.7557259E0],"tree_param":{"num_deleted":"0","num_feature":"1024","num_nodes":"13","size_leaf_vector":"1"}},{"base_weights":[3.677545E-2,8.370861E-2,-2.3471156E-1,1.4508012E-1,-2.1810861E-1,-1.7563272E-1,4.76797E-2,2.3812136E-2,3.6450288E-1,-1.74708E-1,5.745927E-2,1.2200874E-1,-1.728116E-1,5.2811736E-1,-5.338326E-2,2.435094E-1,-2.4991503E-1,2.1759659E-1,4.0739033E-2,2.5509177E-2,1.6059645E-1,-1.1196648E-1,-1.122156E-2],"categories":[],"categories_nodes":[],"categories_segments":[],"categories_sizes":[],"default_left":[0,0,0,0,0,0,0,0,0,0,0,0,0,0,0,0,0,0,0,0,0,0,0],"id":25,"left_children":[1,3,5,7,9,-1,-1,11,13,-1,-1,15,-1,17,-1,19,21,-1,-1,-1,-1,-1,-1],"loss_changes":[3.477439E-1,4.519574E-1,6.5333843E-1,5.090678E-1,7.432822E-1,0E0,0E0,8.7146294E-1,7.0246065E-1,0E0,0E0,6.263273E-1,0E0,3.2851696E-1,0E0,4.1410404E-1,7.971361E-2,0E0,0E0,0E0,0E0,0E0,0E0],"parents":[2147483647,0,0,1,1,2,2,3,3,4,4,7,7,8,8,11,11,13,13,15,15,16,16],"right_children":[2,4,6,8,10,-1,-1,12,14,-1,-1,16,-1,18,-1,20,22,-1,-1,-1,-1,-1,-1],"split_conditions":[1E0,1E0,1E0,1E0,1E0,-1.7563272E-1,4.76797E-2,1E0,1E0,-1.74708E-1,5.745927E-2,1E0,-1.728116E-1,1E0,-5.338326E-2,1E0,1E0,2.1759659E-1,4.0739033E-2,2.5509177E-2,1.6059645E-1,-1.1196648E-1,-1.122156E-2],"split_indices":[964,887,117,843,713,0,0,191,114,0,0,289,0,950,0,501,583,0,0,0,0,0,0],"split_type":[0,0,0,0,0,0,0,0,0,0,0,0,0,0,0,0,0,0,0,0,0,0,0],"sum_hessian":[2.4749737E1,2.1691498E1,3.0582385E0,1.8457634E1,3.2338645E0,1.3596089E0,1.6986297E0,1.2601633E1,5.8560004E0,1.4885795E0,1.745285E0,1.1513461E1,1.088172E0,4.5192943E0,1.3367062E0,8.9386425E0,2.574819E0,2.4426625E0,2.076632E0,6.6295953E0,2.3090467E0,1.1508152E0,1.424004E0],"tree_param":{"num_deleted":"0","num_feature":"1024","num_nodes":"23","size_leaf_vector":"1"}},{"base_weights":[2.1404255E-2,-2.31475E-2,1.0048361E-1,4.8441585E-2,-3.450572E-1,-2.3165882E-2,4.2308733E-1,-1.9040057E-1,6.5932654E-2,-8.655071E-2,1.213756E-1,1.7627741E-1,1.1734071E-2,-1.9780356E-1,1.8344337E-1,-8.325122E-2,7.7509955E-2,-5.5705998E-2,1.0199955E-1],"categories":[],"categories_nodes":[],"categories_segments":[],"categories_sizes":[],"default_left":[0,0,0,0,0,0,0,0,0,0,0,0,0,0,0,0,0,0,0],"id":26,"left_children":[1,3,-1,5,7,9,11,-1,-1,13,-1,-1,-1,15,17,-1,-1,-1,-1],"loss_changes":[3.582894E-1,5.446237E-1,0E0,5.360708E-1,8.4135914E-1,5.072471E-1,1.7912728E-1,0E0,0E0,5.166803E-1,0E0,0E0,0E0,5.0097454E-1,3.6281812E-1,0E0,0E0,0E0,0E0],"parents":[2147483647,0,0,1,1,3,3,4,4,5,5,6,6,9,9,13,13,14,14],"right_children":[2,4,-1,6,8,10,12,-1,-1,14,-1,-1,-1,16,18,-1,-1,-1,-1],"split_conditions":[1E0,1E0,1.0048361E-1,1E0,1E0,1E0,1E0,-1.9040057E-1,6.5932654E-2,1E0,1.213756E-1,1.7627741E-1,1.1734071E-2,1E0,1E0,-8.325122E-2,7.7509955E-2,-5.5705998E-2,1.0199955E-1],"split_indices":[585,289,0,992,128,116,1019,0,0,511,0,0,0,820,726,0,0,0,0],"split_type":[0,0,0,0,0,0,0,0,0,0,0,0,0,0,0,0,0,0,0],"sum_hessian":[2.409422E1,2.1907507E1,2.1867125E0,1.8616848E1,3.290659E0,1.6417143E1,2.1997051E0,2.093567E0,1.1970919E0,1.4993102E1,1.4240401E0,1.16871E0,1.0309951E0,1.0807273E1,4.1858296E0,9.53331E0,1.2739626E0,1.1911722E0,2.9946573E0],"tree_param":{"num_deleted":"0","num_feature":"1024","num_nodes":"19","size_leaf_vector":"1"}},{"base_weights":[2.8460579E-2,6.309337E-2,-8.739669E-2,1.0042619E-1,-9.770909E-2,1.5306732E-1,-2.0969675E-1,2.1072806E-1,-1.9176774E-1,-1.5071467E-1,5.0534748E-2,7.894555E-2,4.9993163E-1,-1.15625754E-1,2.613499E-2,4.58461E-2,-1.0669788E-1,2.0846435E-1,4.8273865E-2],"categories":[],"categories_nodes":[],"categories_segments":[],"categories_sizes":[],"default_left":[0,0,0,0,0,0,0,0,0,0,0,0,0,0,0,0,0,0,0],"id":27,"left_children":[1,3,-1,5,-1,7,9,11,13,-1,-1,15,17,-1,-1,-1,-1,-1,-1],"loss_changes":[2.8920475E-1,3.6489233E-1,0E0,3.8546348E-1,0E0,4.198357E-1,4.7896373E-1,6.0177374E-1,2.0948951E-1,0E0,0E0,4.635756E-1,2.238841E-1,0E0,0E0,0E0,0E0,0E0,0E0],"parents":[2147483647,0,0,1,1,3,3,5,5,6,6,7,7,8,8,11,11,12,12],"right_children":[2,4,-1,6,-1,8,10,12,14,-1,-1,16,18,-1,-1,-1,-1,-1,-1],"split_conditions":[1E0,1E0,-8.739669E-2,1E0,-9.770909E-2,1E0,1E0,1E0,1E0,-1.5071467E-1,5.0534748E-2,1E0,1E0,-1.15625754E-1,2.613499E-2,4.58461E-2,-1.0669788E-1,2.0846435E-1,4.8273865E-2],"split_indices":[420,119,0,964,0,114,117,843,511,0,0,191,438,0,0,0,0,0,0],"split_type":[0,0,0,0,0,0,0,0,0,0,0,0,0,0,0,0,0,0,0],"sum_hessian":[2.3453714E1,2.1886126E1,1.5675892E0,2.0645388E1,1.2407367E0,1.8082453E1,2.5629356E0,1.5825185E1,2.257267E0,1.2595227E0,1.303413E0,1.1745873E1,4.079312E0,1.1067557E0,1.1505113E0,1.0593538E1,1.1523348E0,1.9235243E0,2.1557877E0],"tree_param":{"num_deleted":"0","num_feature":"1024","num_nodes":"19","size_leaf_vector":"1"}},{"base_weights":[1.3640226E-2,-2.1101417E-2,1.2225069E-1,5.668802E-2,-2.464248E-1,-2.7752493E-2,3.6470878E-1,-4.5124853E-1,-2.399158E-3,1.05039455E-1,-3.3694264E-1,1.5451172E-1,1.3544267E-3,-1.7565845E-1,-3.552377E-2,6.1819863E-2,-5.571702E-2,1.9088658E-2,1.471917E-1,-1.9714096E-1,2.727358E-2,-3.6849007E-2,1.9208008E-1],"categories":[],"categories_nodes":[],"categories_segments":[],"categories_sizes":[],"default_left":[0,0,0,0,0,0,0,0,0,0,0,0,0,0,0,0,0,0,0,0,0,0,0],"id":28,"left_children":[1,3,-1,5,7,9,11,13,15,17,19,-1,-1,-1,-1,-1,-1,21,-1,-1,-1,-1,-1],"loss_changes":[3.383063E-1,4.187392E-1,0E0,4.7775918E-1,3.0448437E-1,6.529211E-1,2.1097076E-1,7.897484E-2,1.8330878E-1,3.646127E-1,7.1136415E-1,0E0,0E0,0E0,0E0,0E0,0E0,9.838072E-1,0E0,0E0,0E0,0E0,0E0],"parents":[2147483647,0,0,1,1,3,3,4,4,5,5,6,6,7,7,8,8,9,9,10,10,17,17],"right_children":[2,4,-1,6,8,10,12,14,16,18,20,-1,-1,-1,-1,-1,-1,22,-1,-1,-1,-1,-1],"split_conditions":[1E0,1E0,1.2225069E-1,1E0,1E0,1E0,1E0,1E0,1E0,1E0,1E0,1.5451172E-1,1.3544267E-3,-1.7565845E-1,-3.552377E-2,6.1819863E-2,-5.571702E-2,1E0,1.471917E-1,-1.9714096E-1,2.727358E-2,-3.6849007E-2,1.9208008E-1],"split_indices":[412,147,0,451,428,656,73,947,807,884,501,0,0,0,0,0,0,116,0,0,0,0,0],"split_type":[0,0,0,0,0,0,0,0,0,0,0,0,0,0,0,0,0,0,0,0,0,0,0],"sum_hessian":[2.3095404E1,2.2093052E1,1.0023515E0,1.697954E1,5.113511E0,1.4040415E1,2.9391253E0,2.3183832E0,2.7951276E0,1.028392E1,3.7564945E0,1.7703573E0,1.168768E0,1.1109651E0,1.2074181E0,1.2498358E0,1.5452918E0,9.26765E0,1.0162711E0,1.8420619E0,1.9144328E0,8.197138E0,1.0705118E0],"tree_param":{"num_deleted":"0","num_feature":"1024","num_nodes":"23","size_leaf_vector":"1"}},{"base_weights":[1.7864427E-2,-1.6568456E-2,1.1041728E-1,3.474205E-2,-1.04190566E-1,-2.503772E-2,3.787373E-1,2.3593808E-2,-1.284445E-1,1.4101689E-1,3.0929461E-2,-5.374711E-2,1.7456688E-1,-5.172474E-2,4.4965412E-2],"categories":[],"categories_nodes":[],"categories_segments":[],"categories_sizes":[],"default_left":[0,0,0,0,0,0,0,0,0,0,0,0,0,0,0],"id":29,"left_children":[1,3,-1,5,-1,7,9,11,-1,-1,-1,13,-1,-1,-1],"loss_changes":[2.8878644E-1,3.905315E-1,0E0,4.2519757E-1,0E0,3.6612216E-1,2.843538E-2,7.719444E-1,0E0,0E0,0E0,4.1203654E-1,0E0,0E0,0E0],"parents":[2147483647,0,0,1,1,3,3,5,5,6,6,7,7,11,11],"right_children":[2,4,-1,6,-1,8,10,12,-1,-1,-1,14,-1,-1,-1],"split_conditions":[1E0,1E0,1.1041728E-1,1E0,-1.04190566E-1,1E0,1E0,1E0,-1.284445E-1,1.4101689E-1,3.0929461E-2,1E0,1.7456688E-1,-5.172474E-2,4.4965412E-2],"split_indices":[341,750,0,202,0,878,897,1009,0,0,0,792,0,0,0],"split_type":[0,0,0,0,0,0,0,0,0,0,0,0,0,0,0],"sum_hessian":[2.2443733E1,2.1301903E1,1.1418308E0,1.9215704E1,2.0862002E0,1.7160715E1,2.054988E0,1.6153425E1,1.0072894E0,1.0137885E0,1.0411994E0,1.4981731E1,1.1716946E0,9.562421E0,5.4193106E0],"tree_param":{"num_deleted":"0","num_feature":"1024","num_nodes":"15","size_leaf_vector":"1"}},{"base_weights":[2.2493716E-2,-1.133962E-2,1.0039217E-1,-1.0672328E-1,1.3970464E-1,3.629237E-2,-3.291966E-1,2.1734396E-1,-4.332807E-2,1.7216526E-1,-1.2080654E-1,-6.630788E-1,7.340436E-2,3.34983E-1,-1.024109E-2,2.6879612E-1,-6.977469E-2,-6.0359567E-2,-2.3026364E-1,5.0669444E-1,-4.1726813E-2,-6.0413152E-2,4.5540668E-2,1.15298785E-1,-4.5136236E-2,1.807992E-1,4.476315E-2],"categories":[],"categories_nodes":[],"categories_segments":[],"categories_sizes":[],"default_left":[0,0,0,0,0,0,0,0,0,0,0,0,0,0,0,0,0,0,0,0,0,0,0,0,0,0,0],"id":30,"left_children":[1,3,-1,5,7,9,11,13,-1,15,-1,17,-1,19,21,23,-1,-1,-1,25,-1,-1,-1,-1,-1,-1,-1],"loss_changes":[2.4691676E-1,3.2807562E-1,0E0,4.5389354E-1,2.2654542E-1,6.2735295E-1,1.2226986E0,2.0013905E-1,0E0,3.6933815E-1,0E0,2.7401209E-2,0E0,4.6717942E-1,1.3816772E-1,3.8704255E-1,0E0,0E0,0E0,4.020077E-2,0E0,0E0,0E0,0E0,0E0,0E0,0E0],"parents":[2147483647,0,0,1,1,3,3,4,4,5,5,6,6,7,7,9,9,11,11,13,13,14,14,15,15,19,19],"right_children":[2,4,-1,6,8,10,12,14,-1,16,-1,18,-1,20,22,24,-1,-1,-1,26,-1,-1,-1,-1,-1,-1,-1],"split_conditions":[1E0,1E0,1.0039217E-1,1E0,1E0,1E0,1E0,1E0,-4.332807E-2,1E0,-1.2080654E-1,1E0,7.340436E-2,1E0,1E0,1E0,-6.977469E-2,-6.0359567E-2,-2.3026364E-1,1E0,-4.1726813E-2,-6.0413152E-2,4.5540668E-2,1.15298785E-1,-4.5136236E-2,1.807992E-1,4.476315E-2],"split_indices":[921,428,0,378,184,333,86,806,0,322,0,807,0,13,831,750,0,0,0,841,0,0,0,0,0,0,0],"split_type":[0,0,0,0,0,0,0,0,0,0,0,0,0,0,0,0,0,0,0,0,0,0,0,0,0,0,0],"sum_hessian":[2.2020807E1,2.0736832E1,1.2839756E0,1.2890181E1,7.846651E0,8.355662E0,4.5345187E0,6.3473015E0,1.4993496E0,6.8448563E0,1.510806E0,2.7684176E0,1.7661012E0,3.8732898E0,2.4740117E0,5.7967997E0,1.0480564E0,1.0503677E0,1.7180498E0,2.7928815E0,1.0804085E0,1.023738E0,1.4502735E0,4.609774E0,1.1870255E0,1.6610969E0,1.1317846E0],"tree_param":{"num_deleted":"0","num_feature":"1024","num_nodes":"27","size_leaf_vector":"1"}},{"base_weights":[1.0582185E-2,-2.4017256E-2,9.990459E-2,-5.7583284E-2,8.6928904E-2,-1.280448E-1,1.492979E-1,-1.8748881E-1,9.304862E-2,2.624955E-1,-2.8697135E-2,-2.5372803E-1,9.230283E-2,-1.5765706E-2,1.24047324E-1,-9.58102E-2,8.037226E-2],"categories":[],"categories_nodes":[],"categories_segments":[],"categories_sizes":[],"default_left":[0,0,0,0,0,0,0,0,0,0,0,0,0,0,0,0,0],"id":31,"left_children":[1,3,-1,5,-1,7,9,11,-1,13,-1,15,-1,-1,-1,-1,-1],"loss_changes":[2.5733447E-1,2.3909518E-1,0E0,3.0935368E-1,0E0,4.590498E-1,1.7817277E-1,5.4300237E-1,0E0,2.1403536E-1,0E0,5.324147E-1,0E0,0E0,0E0,0E0,0E0],"parents":[2147483647,0,0,1,1,3,3,5,5,6,6,7,7,9,9,11,11],"right_children":[2,4,-1,6,-1,8,10,12,-1,14,-1,16,-1,-1,-1,-1,-1],"split_conditions":[1E0,1E0,9.990459E-2,1E0,8.6928904E-2,1E0,1E0,1E0,9.304862E-2,1E0,-2.8697135E-2,1E0,9.230283E-2,-1.5765706E-2,1.24047324E-1,-9.58102E-2,8.037226E-2],"split_indices":[325,921,0,157,0,1009,289,221,0,54,0,341,0,0,0,0,0],"split_type":[0,0,0,0,0,0,0,0,0,0,0,0,0,0,0,0,0],"sum_hessian":[2.1349968E1,2.01168E1,1.2331679E0,1.8910383E1,1.206416E0,1.439028E1,4.5201044E0,1.3175175E1,1.2151047E0,3.0425067E0,1.4775977E0,1.20507145E1,1.1244601E0,1.1969876E0,1.845519E0,1.1048233E1,1.0024815E0],"tree_param":{"num_deleted":"0","num_feature":"1024","num_nodes":"17","size_leaf_vector":"1"}},{"base_weights":[2.744276E-2,-1.1914402E-2,8.654512E-2,4.1423295E-2,-2.638643E-1,8.8341035E-2,-9.40325E-2,-1.5793668E-1,5.98404E-2,1.6409237E-2,1.3549043E-1,1.1456365E-1,-1.9319016E-1,5.9924584E-2,-9.2936814E-2,-1.183737E-1,2.8345292E-2],"categories":[],"categories_nodes":[],"categories_segments":[],"categories_sizes":[],"default_left":[0,0,0,0,0,0,0,0,0,0,0,0,0,0,0,0,0],"id":32,"left_children":[1,3,-1,5,7,9,-1,-1,-1,11,-1,13,15,-1,-1,-1,-1],"loss_changes":[2.2902322E-1,2.802484E-1,0E0,3.174539E-1,5.4752517E-1,4.1466942E-1,0E0,0E0,0E0,3.2085153E-1,0E0,4.4204196E-1,3.2713902E-1,0E0,0E0,0E0,0E0],"parents":[2147483647,0,0,1,1,3,3,4,4,5,5,9,9,11,11,12,12],"right_children":[2,4,-1,6,8,10,-1,-1,-1,12,-1,14,16,-1,-1,-1,-1],"split_conditions":[1E0,1E0,8.654512E-2,1E0,1E0,1E0,-9.40325E-2,-1.5793668E-1,5.98404E-2,1E0,1.3549043E-1,1E0,1E0,5.9924584E-2,-9.2936814E-2,-1.183737E-1,2.8345292E-2],"split_indices":[585,289,0,420,128,992,0,0,0,10,0,114,875,0,0,0,0],"split_type":[0,0,0,0,0,0,0,0,0,0,0,0,0,0,0,0,0],"sum_hessian":[2.0957348E1,1.9040907E1,1.9164406E0,1.6403814E1,2.637092E0,1.515163E1,1.2521843E0,1.5962104E0,1.0408819E0,1.35198765E1,1.631754E0,9.516677E0,4.003199E0,8.366472E0,1.1502051E0,2.1361523E0,1.867047E0],"tree_param":{"num_deleted":"0","num_feature":"1024","num_nodes":"17","size_leaf_vector":"1"}},{"base_weights":[1.4776737E-2,-5.5067554E-2,1.660715E-1,-1.8805748E-1,1.6461349E-1,2.9895335E-1,-4.639543E-2,3.0668506E-2,-1.4797254E-1,1.1371002E-1,1.3140234E-3,2.7949573E-2,1.2869905E-1,-1.20288275E-1,1.0002191E-1,-7.141627E-2,6.772973E-2,3.8266513E-2,-1.0684007E-1,-6.037537E-2,9.8305315E-2],"categories":[],"categories_nodes":[],"categories_segments":[],"categories_sizes":[],"default_left":[0,0,0,0,0,0,0,0,0,0,0,0,0,0,0,0,0,0,0,0,0],"id":33,"left_children":[1,3,5,7,9,11,-1,13,-1,-1,15,-1,-1,17,-1,-1,-1,19,-1,-1,-1],"loss_changes":[2.3773009E-1,4.8527396E-1,3.4802115E-1,6.9288063E-1,2.2350043E-1,1.03144765E-1,0E0,3.5342243E-1,0E0,0E0,3.0276844E-1,0E0,0E0,2.1217847E-1,0E0,0E0,0E0,3.4864047E-1,0E0,0E0,0E0],"parents":[2147483647,0,0,1,1,2,2,3,3,4,4,5,5,7,7,10,10,13,13,17,17],"right_children":[2,4,6,8,10,12,-1,14,-1,-1,16,-1,-1,18,-1,-1,-1,20,-1,-1,-1],"split_conditions":[1E0,1E0,1E0,1E0,1E0,1E0,-4.639543E-2,1E0,-1.4797254E-1,1.1371002E-1,1E0,2.7949573E-2,1.2869905E-1,1E0,1.0002191E-1,-7.141627E-2,6.772973E-2,1E0,-1.0684007E-1,-6.037537E-2,9.8305315E-2],"split_indices":[792,428,855,80,695,80,0,694,0,0,378,0,0,33,0,0,0,202,0,0,0],"split_type":[0,0,0,0,0,0,0,0,0,0,0,0,0,0,0,0,0,0,0,0,0],"sum_hessian":[2.0631805E1,1.4550625E1,6.081181E0,9.153347E0,5.3972774E0,4.347714E0,1.7334673E0,5.855914E0,3.2974334E0,1.7622567E0,3.6350205E0,2.3482025E0,1.9995112E0,4.309631E0,1.5462831E0,1.7297317E0,1.9052889E0,3.0780544E0,1.2315764E0,1.8509068E0,1.2271475E0],"tree_param":{"num_deleted":"0","num_feature":"1024","num_nodes":"21","size_leaf_vector":"1"}},{"base_weights":[1.519431E-2,-3.7355095E-2,1.9963467E-1,-1.2695849E-1,1.4413172E-1,3.4774172E-1,-4.7345318E-2,-2.26469E-1,1.0791847E-1,-2.9134246E-2,2.6893798E-1,-2.8254109E-2,1.6874498E-1,-3.9299008E-1,3.174706E-2,1.5821451E-1,-9.277115E-2,1.18534125E-1,2.2815114E-2,-5.307051E-1,2.4187472E-3,-2.1995732E-1,1.16722055E-1,-1.9330719E-1,-6.487378E-2,4.01742E-2,-1.3730188E-1],"categories":[],"categories_nodes":[],"categories_segments":[],"categories_sizes":[],"default_left":[0,0,0,0,0,0,0,0,0,0,0,0,0,0,0,0,0,0,0,0,0,0,0,0,0,0,0],"id":34,"left_children":[1,3,5,7,9,11,-1,13,15,-1,17,-1,-1,19,21,-1,-1,-1,-1,23,-1,25,-1,-1,-1,-1,-1],"loss_changes":[2.1248384E-1,2.9971808E-1,3.115483E-1,3.0765218E-1,2.1244158E-1,4.0790072E-1,0E0,3.9232302E-1,9.125713E-1,0E0,7.566714E-2,0E0,0E0,3.0502772E-1,4.8029956E-1,0E0,0E0,0E0,0E0,6.0602427E-3,0E0,3.316303E-1,0E0,0E0,0E0,0E0,0E0],"parents":[2147483647,0,0,1,1,2,2,3,3,4,4,5,5,7,7,8,8,10,10,13,13,14,14,19,19,21,21],"right_children":[2,4,6,8,10,12,-1,14,16,-1,18,-1,-1,20,22,-1,-1,-1,-1,24,-1,26,-1,-1,-1,-1,-1],"split_conditions":[1E0,1E0,1E0,1E0,1E0,1E0,-4.7345318E-2,1E0,1E0,-2.9134246E-2,1E0,-2.8254109E-2,1.6874498E-1,1E0,1E0,1.5821451E-1,-9.277115E-2,1.18534125E-1,2.2815114E-2,1E0,2.4187472E-3,1E0,1.16722055E-1,-1.9330719E-1,-6.487378E-2,4.01742E-2,-1.3730188E-1],"split_indices":[511,792,191,451,1019,726,0,501,695,0,905,0,0,428,389,0,0,0,0,926,0,807,0,0,0,0,0],"split_type":[0,0,0,0,0,0,0,0,0,0,0,0,0,0,0,0,0,0,0,0,0,0,0,0,0,0,0],"sum_hessian":[2.015369E1,1.6305511E1,3.8481796E0,1.1117198E1,5.1883125E0,2.7400372E0,1.1081424E0,7.8339705E0,3.2832277E0,1.8446174E0,3.3436954E0,1.079641E0,1.6603962E0,4.4452977E0,3.388673E0,1.5053341E0,1.7778935E0,1.3875968E0,1.9560986E0,3.0683837E0,1.376914E0,2.2137327E0,1.1749401E0,1.4832199E0,1.5851637E0,1.0650005E0,1.1487323E0],"tree_param":{"num_deleted":"0","num_feature":"1024","num_nodes":"27","size_leaf_vector":"1"}},{"base_weights":[1.248777E-2,4.366289E-2,-8.029764E-2,9.828709E-2,-2.0896004E-1,6.718946E-3,3.8935247E-1,-1.2526958E-1,2.357394E-2,-6.3629285E-2,1.7544687E-1,4.3672387E-2,1.4634022E-1,6.1571676E-2,-3.3584955E-1,8.772453E-2,-2.42864E-2,1.0307458E-1,-6.0169708E-2,-1.4641763E-1,3.8113494E-3],"categories":[],"categories_nodes":[],"categories_segments":[],"categories_sizes":[],"default_left":[0,0,0,0,0,0,0,0,0,0,0,0,0,0,0,0,0,0,0,0,0],"id":35,"left_children":[1,3,-1,5,7,9,11,-1,-1,13,15,-1,-1,17,19,-1,-1,-1,-1,-1,-1],"loss_changes":[1.9007154E-1,2.860306E-1,0E0,4.371237E-1,2.5717068E-1,1.7221496E-1,2.3326993E-2,0E0,0E0,3.720549E-1,1.513917E-1,0E0,0E0,6.534272E-1,1.8673038E-1,0E0,0E0,0E0,0E0,0E0,0E0],"parents":[2147483647,0,0,1,1,3,3,4,4,5,5,6,6,9,9,10,10,13,13,14,14],"right_children":[2,4,-1,6,8,10,12,-1,-1,14,16,-1,-1,18,20,-1,-1,-1,-1,-1,-1],"split_conditions":[1E0,1E0,-8.029764E-2,1E0,1E0,1E0,1E0,-1.2526958E-1,2.357394E-2,1E0,1E0,4.3672387E-2,1.4634022E-1,1E0,1E0,8.772453E-2,-2.42864E-2,1.0307458E-1,-6.0169708E-2,-1.4641763E-1,3.8113494E-3],"split_indices":[235,315,0,361,973,843,136,0,0,128,511,0,0,807,36,0,0,0,0,0,0],"split_type":[0,0,0,0,0,0,0,0,0,0,0,0,0,0,0,0,0,0,0,0,0],"sum_hessian":[1.9425106E1,1.8239527E1,1.1855786E0,1.5499115E1,2.740412E0,1.2568267E1,2.9308484E0,1.326129E0,1.4142832E0,9.309653E0,3.2586129E0,1.5561634E0,1.374685E0,6.9068403E0,2.4028132E0,2.1413085E0,1.1173044E0,3.1776237E0,3.7292166E0,1.3938833E0,1.0089298E0],"tree_param":{"num_deleted":"0","num_feature":"1024","num_nodes":"21","size_leaf_vector":"1"}},{"base_weights":[7.760992E-3,-3.392987E-2,8.277988E-2,-6.823893E-2,7.74716E-2,-1.3604522E-1,1.5134345E-1,-1.8645647E-1,6.065441E-2,-5.0282802E-2,1.1600727E-1,-2.9437006E-1,9.91677E-2,2.416123E-2,-4.676947E-2,-1.2033416E-1,3.7008293E-3,-4.149069E-2,7.104625E-2],"categories":[],"categories_nodes":[],"categories_segments":[],"categories_sizes":[],"default_left":[0,0,0,0,0,0,0,0,0,0,0,0,0,0,0,0,0,0,0],"id":36,"left_children":[1,3,-1,5,-1,7,9,11,-1,13,-1,15,17,-1,-1,-1,-1,-1,-1],"loss_changes":[2.3182695E-1,1.9916897E-1,0E0,2.7368727E-1,0E0,2.681312E-1,2.322241E-1,4.0775654E-1,0E0,5.815045E-2,0E0,3.050365E-1,1.6729558E-1,0E0,0E0,0E0,0E0,0E0,0E0],"parents":[2147483647,0,0,1,1,3,3,5,5,6,6,7,7,9,9,11,11,12,12],"right_children":[2,4,-1,6,-1,8,10,12,-1,14,-1,16,18,-1,-1,-1,-1,-1,-1],"split_conditions":[1E0,1E0,8.277988E-2,1E0,7.74716E-2,1E0,1E0,1E0,6.065441E-2,1E0,1.1600727E-1,1E0,1E0,2.416123E-2,-4.676947E-2,-1.2033416E-1,3.7008293E-3,-4.149069E-2,7.104625E-2],"split_indices":[585,884,0,511,0,1009,33,389,0,10,0,286,136,0,0,0,0,0,0],"split_type":[0,0,0,0,0,0,0,0,0,0,0,0,0,0,0,0,0,0,0],"sum_hessian":[1.8897877E1,1.7111193E1,1.7866836E0,1.5998898E1,1.1122946E0,1.2514805E1,3.4840927E0,1.1281994E1,1.2328109E0,2.2999942E0,1.1840986E0,8.166089E0,3.115905E0,1.1334707E0,1.1665236E0,5.8294406E0,2.3366485E0,1.1416649E0,1.9742401E0],"tree_param":{"num_deleted":"0","num_feature":"1024","num_nodes":"19","size_leaf_vector":"1"}},{"base_weights":[1.6981337E-2,-2.1092102E-2,7.781432E-2,5.537363E-2,-2.2508985E-1,1.06632166E-1,-8.590489E-2,-1.1805121E-1,1.6201686E-3,2.0198079E-2,1.15789026E-1,5.2989703E-2,-4.863834E-2,9.673601E-2,-8.831845E-2,5.0233588E-2,-6.37712E-2],"categories":[],"categories_nodes":[],"categories_segments":[],"categories_sizes":[],"default_left":[0,0,0,0,0,0,0,0,0,0,0,0,0,0,0,0,0],"id":37,"left_children":[1,3,-1,5,7,9,-1,-1,11,13,-1,-1,-1,15,-1,-1,-1],"loss_changes":[1.8586321E-1,2.903997E-1,0E0,2.716003E-1,1.9365373E-1,2.987333E-1,0E0,0E0,1.1892688E-1,2.8734496E-1,0E0,0E0,0E0,2.4117789E-1,0E0,0E0,0E0],"parents":[2147483647,0,0,1,1,3,3,4,4,5,5,8,8,9,9,13,13],"right_children":[2,4,-1,6,8,10,-1,-1,12,14,-1,-1,-1,16,-1,-1,-1],"split_conditions":[1E0,1E0,7.781432E-2,1E0,1E0,1E0,-8.590489E-2,-1.1805121E-1,1E0,1E0,1.15789026E-1,5.2989703E-2,-4.863834E-2,1E0,-8.831845E-2,5.0233588E-2,-6.37712E-2],"split_indices":[285,147,0,709,695,954,0,0,745,750,0,0,0,73,0,0,0],"split_type":[0,0,0,0,0,0,0,0,0,0,0,0,0,0,0,0,0],"sum_hessian":[1.8546268E1,1.6817717E1,1.7285528E0,1.2762447E1,4.0552692E0,1.1696003E1,1.0664445E0,1.9046571E0,2.150612E0,9.751029E0,1.9449738E0,1.0015168E0,1.1490952E0,8.399904E0,1.351125E0,7.210244E0,1.1896602E0],"tree_param":{"num_deleted":"0","num_feature":"1024","num_nodes":"17","size_leaf_vector":"1"}},{"base_weights":[6.5083406E-3,-4.016095E-2,1.8874219E-1,-7.861807E-2,8.1282124E-2,1.6245088E-1,-6.86204E-2,-1.5408212E-1,1.4835127E-1,-2.0635138E-1,4.9721938E-2,8.513576E-2,-4.9821236E-3,-3.1112349E-2,-3.8575613E-1,4.1061934E-2,-1.2141252E-1,-1.5142715E-1,1.0223047E-2],"categories":[],"categories_nodes":[],"categories_segments":[],"categories_sizes":[],"default_left":[0,0,0,0,0,0,0,0,0,0,0,0,0,0,0,0,0,0,0],"id":38,"left_children":[1,3,5,7,-1,-1,-1,9,11,13,-1,-1,-1,15,17,-1,-1,-1,-1],"loss_changes":[1.7128848E-1,2.1450977E-1,7.276654E-1,2.8230572E-1,0E0,0E0,0E0,2.3243591E-1,1.00536644E-1,3.2244426E-1,0E0,0E0,0E0,4.6139377E-1,2.7543718E-1,0E0,0E0,0E0,0E0],"parents":[2147483647,0,0,1,1,2,2,3,3,7,7,8,8,9,9,13,13,14,14],"right_children":[2,4,6,8,-1,-1,-1,10,12,14,-1,-1,-1,16,18,-1,-1,-1,-1],"split_conditions":[1E0,1E0,1E0,1E0,8.1282124E-2,1.6245088E-1,-6.86204E-2,1E0,1E0,1E0,4.9721938E-2,8.513576E-2,-4.9821236E-3,1E0,1E0,4.1061934E-2,-1.2141252E-1,-1.5142715E-1,1.0223047E-2],"split_indices":[451,921,695,81,0,0,0,840,807,128,0,0,0,289,86,0,0,0,0],"split_type":[0,0,0,0,0,0,0,0,0,0,0,0,0,0,0,0,0,0,0],"sum_hessian":[1.8249113E1,1.5149111E1,3.1000023E0,1.4147539E1,1.0015719E0,1.5192107E0,1.5807916E0,1.0858407E1,3.2891319E0,9.638033E0,1.2203742E0,1.4106265E0,1.8785055E0,5.469223E0,4.16881E0,4.209898E0,1.2593248E0,3.0905244E0,1.0782855E0],"tree_param":{"num_deleted":"0","num_feature":"1024","num_nodes":"19","size_leaf_vector":"1"}},{"base_weights":[8.660246E-3,4.549321E-2,-6.443983E-2,-3.9809335E-2,3.6631027E-1,-1.0789982E-1,1.6935186E-1,1.4109558E-1,1.468907E-2,-1.845303E-1,1.2022053E-1,1.3831802E-1,-5.4206405E-2,-2.5382224E-1,4.1620743E-2,7.42049E-2,-1.0833229E-2,-1.0819632E-1,6.859923E-4],"categories":[],"categories_nodes":[],"categories_segments":[],"categories_sizes":[],"default_left":[0,0,0,0,0,0,0,0,0,0,0,0,0,0,0,0,0,0,0],"id":39,"left_children":[1,3,-1,5,7,9,11,-1,-1,13,15,-1,-1,17,-1,-1,-1,-1,-1],"loss_changes":[1.6369006E-1,4.7651613E-1,0E0,2.2102158E-1,9.722969E-2,2.2060466E-1,4.8004687E-1,0E0,0E0,2.3436981E-1,7.7690266E-2,0E0,0E0,2.1081805E-1,0E0,0E0,0E0,0E0,0E0],"parents":[2147483647,0,0,1,1,3,3,4,4,5,5,6,6,9,9,10,10,13,13],"right_children":[2,4,-1,6,8,10,12,-1,-1,14,16,-1,-1,18,-1,-1,-1,-1,-1],"split_conditions":[1E0,1E0,-6.443983E-2,1E0,1E0,1E0,1E0,1.4109558E-1,1.468907E-2,1E0,1E0,1.3831802E-1,-5.4206405E-2,1E0,4.1620743E-2,7.42049E-2,-1.0833229E-2,-1.0819632E-1,6.859923E-4],"split_indices":[114,81,0,451,947,511,695,0,0,840,128,0,0,745,0,0,0,0,0],"split_type":[0,0,0,0,0,0,0,0,0,0,0,0,0,0,0,0,0,0,0],"sum_hessian":[1.7700533E1,1.58795185E1,1.8210145E0,1.3236072E1,2.643447E0,1.0350645E1,2.8854258E0,1.6278845E0,1.0155625E0,7.8909807E0,2.4596646E0,1.4008518E0,1.4845738E0,6.675014E0,1.215967E0,1.0354326E0,1.424232E0,4.422165E0,2.252849E0],"tree_param":{"num_deleted":"0","num_feature":"1024","num_nodes":"19","size_leaf_vector":"1"}},{"base_weights":[1.601574E-2,-4.583047E-2,1.3649583E-1,-1.5026733E-1,1.2706256E-1,2.533079E-1,-3.9919436E-2,2.2282481E-2,-1.22032456E-1,-2.5435284E-2,2.3546658E-1,2.2600107E-2,1.0831683E-1,-1.10949285E-1,8.800925E-2,9.871024E-2,3.3381234E-3,-2.3477712E-1,4.2627517E-2,-9.3434915E-2,-1.305823E-2],"categories":[],"categories_nodes":[],"categories_segments":[],"categories_sizes":[],"default_left":[0,0,0,0,0,0,0,0,0,0,0,0,0,0,0,0,0,0,0,0,0],"id":40,"left_children":[1,3,5,7,9,11,-1,13,-1,-1,15,-1,-1,17,-1,-1,-1,19,-1,-1,-1],"loss_changes":[1.422082E-1,2.5030988E-1,2.3650119E-1,3.826745E-1,1.4314911E-1,6.556931E-2,0E0,2.4905203E-1,0E0,0E0,7.637842E-2,0E0,0E0,1.8203054E-1,0E0,0E0,0E0,3.8687184E-2,0E0,0E0,0E0],"parents":[2147483647,0,0,1,1,2,2,3,3,4,4,5,5,7,7,10,10,13,13,17,17],"right_children":[2,4,6,8,10,12,-1,14,-1,-1,16,-1,-1,18,-1,-1,-1,20,-1,-1,-1],"split_conditions":[1E0,1E0,1E0,1E0,1E0,1E0,-3.9919436E-2,1E0,-1.22032456E-1,-2.5435284E-2,1E0,2.2600107E-2,1.0831683E-1,1E0,8.800925E-2,9.871024E-2,3.3381234E-3,1E0,4.2627517E-2,-9.3434915E-2,-1.305823E-2],"split_indices":[792,428,855,80,33,80,0,694,0,0,283,0,0,580,0,0,0,745,0,0,0],"split_type":[0,0,0,0,0,0,0,0,0,0,0,0,0,0,0,0,0,0,0,0,0],"sum_hessian":[1.7245634E1,1.1805237E1,5.4403973E0,7.441206E0,4.364031E0,3.8376663E0,1.602731E0,4.9945545E0,2.4466515E0,1.5509665E0,2.8130646E0,2.0879824E0,1.7496839E0,3.7447796E0,1.2497752E0,1.6557888E0,1.1572758E0,2.562819E0,1.1819605E0,1.3807673E0,1.1820517E0],"tree_param":{"num_deleted":"0","num_feature":"1024","num_nodes":"21","size_leaf_vector":"1"}},{"base_weights":[1.4978835E-2,5.4702885E-2,-1.8874508E-1,4.7516683E-3,1.0285003E-1,-1.2243713E-1,4.233834E-2,6.9621354E-2,-1.1831216E-1,-5.005067E-2,2.249319E-1,-1.3476889E-1,6.014808E-2,1.2464955E-1,-3.9121438E-2,-6.372948E-2,3.820954E-2,-4.3486085E-2,2.5502179E-2],"categories":[],"categories_nodes":[],"categories_segments":[],"categories_sizes":[],"default_left":[0,0,0,0,0,0,0,0,0,0,0,0,0,0,0,0,0,0,0],"id":41,"left_children":[1,3,5,7,-1,-1,-1,9,-1,11,13,15,-1,-1,17,-1,-1,-1,-1],"loss_changes":[1.5643571E-1,2.2697876E-1,2.870526E-1,4.042009E-1,0E0,0E0,0E0,2.5969568E-1,0E0,2.0462632E-1,3.1813204E-1,1.6653183E-1,0E0,0E0,5.7363898E-2,0E0,0E0,0E0,0E0],"parents":[2147483647,0,0,1,1,2,2,3,3,7,7,9,9,10,10,11,11,14,14],"right_children":[2,4,6,8,-1,-1,-1,10,-1,12,14,16,-1,-1,18,-1,-1,-1,-1],"split_conditions":[1E0,1E0,1E0,1E0,1.0285003E-1,-1.2243713E-1,4.233834E-2,1E0,-1.1831216E-1,1E0,1E0,1E0,6.014808E-2,1.2464955E-1,1E0,-6.372948E-2,3.820954E-2,-4.3486085E-2,2.5502179E-2],"split_indices":[964,871,488,715,0,0,0,136,0,745,695,840,0,0,946,0,0,0,0],"split_type":[0,0,0,0,0,0,0,0,0,0,0,0,0,0,0,0,0,0,0],"sum_hessian":[1.7054556E1,1.4883846E1,2.1707103E0,1.355108E1,1.3327667E0,1.1612304E0,1.0094799E0,1.2366693E1,1.1843876E0,7.3675127E0,4.9991794E0,5.851127E0,1.5163856E0,2.5705097E0,2.4286697E0,4.660086E0,1.1910411E0,1.2203933E0,1.2082765E0],"tree_param":{"num_deleted":"0","num_feature":"1024","num_nodes":"19","size_leaf_vector":"1"}},{"base_weights":[1.3485558E-2,5.0194986E-2,-6.1142623E-2,-1.7620178E-2,3.0222654E-1,3.0200403E-2,-7.166139E-2,1.22321725E-1,7.37077E-3,8.476958E-2,-6.8956405E-2,1.5108432E-1,-5.4119058E-2,5.1386817E-3,1.06481485E-1],"categories":[],"categories_nodes":[],"categories_segments":[],"categories_sizes":[],"default_left":[0,0,0,0,0,0,0,0,0,0,0,0,0,0,0],"id":42,"left_children":[1,3,-1,5,7,9,-1,-1,-1,11,-1,13,-1,-1,-1],"loss_changes":[1.5169829E-1,2.783513E-1,0E0,1.5039043E-1,9.082091E-2,1.8998991E-1,0E0,0E0,0E0,2.1473497E-1,0E0,2.4167877E-1,0E0,0E0,0E0],"parents":[2147483647,0,0,1,1,3,3,4,4,5,5,9,9,11,11],"right_children":[2,4,-1,6,8,10,-1,-1,-1,12,-1,14,-1,-1,-1],"split_conditions":[1E0,1E0,-6.1142623E-2,1E0,1E0,1E0,-7.166139E-2,1.22321725E-1,7.37077E-3,1E0,-6.8956405E-2,1E0,-5.4119058E-2,5.1386817E-3,1.06481485E-1],"split_indices":[114,81,0,980,947,322,0,0,0,64,0,36,0,0,0],"split_type":[0,0,0,0,0,0,0,0,0,0,0,0,0,0,0],"sum_hessian":[1.6735058E1,1.4974316E1,1.7607422E0,1.2532289E1,2.4420269E0,1.1015033E1,1.5172559E0,1.4300835E0,1.0119435E0,9.661686E0,1.3533468E0,8.072968E0,1.5887178E0,5.5258665E0,2.5471015E0],"tree_param":{"num_deleted":"0","num_feature":"1024","num_nodes":"15","size_leaf_vector":"1"}},{"base_weights":[9.063636E-3,-4.3598965E-2,1.914504E-1,9.489585E-3,-7.293744E-2,2.4262402E-2,1.0589566E-1,-4.8925634E-2,8.564545E-2,3.324322E-2,-2.3350313E-2,1.9015442E-1,-1.3563521E-1,1.3976059E-2,7.6958634E-2,-2.1585262E-1,5.3043608E-2,-1.2913656E-1,1.2415395E-2],"categories":[],"categories_nodes":[],"categories_segments":[],"categories_sizes":[],"default_left":[0,0,0,0,0,0,0,0,0,0,0,0,0,0,0,0,0,0,0],"id":43,"left_children":[1,3,5,7,-1,9,-1,11,-1,-1,-1,13,15,-1,-1,17,-1,-1,-1],"loss_changes":[1.7732547E-1,1.5553541E-1,1.0289645E-1,2.1369179E-1,0E0,3.6034174E-2,0E0,2.5544018E-1,0E0,0E0,0E0,2.0112097E-2,2.5654763E-1,0E0,0E0,4.2540473E-1,0E0,0E0,0E0],"parents":[2147483647,0,0,1,1,2,2,3,3,5,5,7,7,11,11,12,12,15,15],"right_children":[2,4,6,8,-1,10,-1,12,-1,-1,-1,14,16,-1,-1,18,-1,-1,-1],"split_conditions":[1E0,1E0,1E0,1E0,-7.293744E-2,1E0,1.0589566E-1,1E0,8.564545E-2,3.324322E-2,-2.3350313E-2,1E0,1E0,1.3976059E-2,7.6958634E-2,1E0,5.3043608E-2,-1.2913656E-1,1.2415395E-2],"split_indices":[511,935,33,585,0,10,0,807,0,0,0,81,736,0,0,36,0,0,0],"split_type":[0,0,0,0,0,0,0,0,0,0,0,0,0,0,0,0,0,0,0],"sum_hessian":[1.6592829E1,1.3465682E1,3.1271458E0,1.138806E1,2.0776224E0,2.1018949E0,1.025251E0,1.0077794E1,1.3102653E0,1.091376E0,1.0105188E0,2.3647053E0,7.713089E0,1.2856746E0,1.0790308E0,6.383381E0,1.329708E0,3.112975E0,3.270406E0],"tree_param":{"num_deleted":"0","num_feature":"1024","num_nodes":"19","size_leaf_vector":"1"}},{"base_weights":[1.5257491E-2,5.2208334E-2,-1.6983087E-1,9.403491E-2,-5.1004786E-2,-1.04784E-1,2.9205346E-2,2.010143E-3,1.2119294E-1,-8.696946E-2,2.2719583E-1,-2.2462954E-1,7.5693615E-2,1.02579124E-1,9.022605E-3,-9.541218E-2,-4.548312E-3,6.3580565E-2,-4.298313E-2],"categories":[],"categories_nodes":[],"categories_segments":[],"categories_sizes":[],"default_left":[0,0,0,0,0,0,0,0,0,0,0,0,0,0,0,0,0,0,0],"id":44,"left_children":[1,3,5,7,-1,-1,-1,9,-1,11,13,15,17,-1,-1,-1,-1,-1,-1],"loss_changes":[1.27516E-1,1.5751415E-1,1.8369836E-1,3.830492E-1,0E0,0E0,0E0,2.4782333E-1,0E0,2.1588257E-1,6.88867E-2,9.423593E-2,1.7413223E-1,0E0,0E0,0E0,0E0,0E0,0E0],"parents":[2147483647,0,0,1,1,2,2,3,3,7,7,9,9,10,10,11,11,12,12],"right_children":[2,4,6,8,-1,-1,-1,10,-1,12,14,16,18,-1,-1,-1,-1,-1,-1],"split_conditions":[1E0,1E0,1E0,1E0,-5.1004786E-2,-1.04784E-1,2.9205346E-2,1E0,1.2119294E-1,1E0,1E0,1E0,1E0,1.02579124E-1,9.022605E-3,-9.541218E-2,-4.548312E-3,6.3580565E-2,-4.298313E-2],"split_indices":[964,114,488,81,0,0,0,745,0,33,754,816,128,0,0,0,0,0,0],"split_type":[0,0,0,0,0,0,0,0,0,0,0,0,0,0,0,0,0,0,0],"sum_hessian":[1.6348507E1,1.4226309E1,2.1221976E0,1.2458284E1,1.7680243E0,1.0857172E0,1.0364805E0,1.0382193E1,2.0760918E0,7.881639E0,2.5005534E0,4.0625744E0,3.8190646E0,1.116225E0,1.3843284E0,2.4511702E0,1.6114042E0,2.37407E0,1.4449948E0],"tree_param":{"num_deleted":"0","num_feature":"1024","num_nodes":"19","size_leaf_vector":"1"}},{"base_weights":[1.2775089E-2,-4.1137446E-2,1.9580969E-1,2.5569173E-3,-9.100048E-2,7.886628E-2,2.7049293E-3,-4.9435407E-2,9.2059836E-2,-1.2459445E-1,1.552519E-1,2.2316154E-2,-3.629341E-1,1.3233653E-1,-5.4429613E-2,-4.1484E-2,1.05346926E-1,-1.8045123E-1,-5.136831E-3],"categories":[],"categories_nodes":[],"categories_segments":[],"categories_sizes":[],"default_left":[0,0,0,0,0,0,0,0,0,0,0,0,0,0,0,0,0,0,0],"id":45,"left_children":[1,3,5,7,-1,-1,-1,9,-1,11,13,15,17,-1,-1,-1,-1,-1,-1],"loss_changes":[1.7670198E-1,1.6149162E-1,4.8528075E-2,2.2110754E-1,0E0,0E0,0E0,2.0361464E-1,0E0,3.342896E-1,4.325115E-1,4.026745E-1,2.875599E-1,0E0,0E0,0E0,0E0,0E0,0E0],"parents":[2147483647,0,0,1,1,2,2,3,3,7,7,9,9,10,10,11,11,12,12],"right_children":[2,4,6,8,-1,-1,-1,10,-1,12,14,16,18,-1,-1,-1,-1,-1,-1],"split_conditions":[1E0,1E0,1E0,1E0,-9.100048E-2,7.886628E-2,2.7049293E-3,1E0,9.2059836E-2,1E0,1E0,1E0,1E0,1.3233653E-1,-5.4429613E-2,-4.1484E-2,1.05346926E-1,-1.8045123E-1,-5.136831E-3],"split_indices":[511,114,10,871,0,0,0,451,0,656,695,745,501,0,0,0,0,0,0],"split_type":[0,0,0,0,0,0,0,0,0,0,0,0,0,0,0,0,0,0,0],"sum_hessian":[1.6090523E1,1.3028306E1,3.0622177E0,1.20161085E1,1.0121976E0,1.9533815E0,1.1088362E0,1.0978023E1,1.0380859E0,8.31583E0,2.662192E0,5.705423E0,2.610407E0,1.2719859E0,1.3902063E0,4.2226796E0,1.4827434E0,1.1071806E0,1.5032266E0],"tree_param":{"num_deleted":"0","num_feature":"1024","num_nodes":"19","size_leaf_vector":"1"}},{"base_weights":[1.1339795E-2,6.635038E-2,-1.2394254E-1,1.1405658E-1,-6.1155308E-2,-2.7917194E-1,6.489034E-2,-4.645828E-2,1.6533697E-1,-1.0595292E-1,-2.737103E-2,2.1421945E-1,-6.7317127E-3,2.7098304E-1,-2.5875987E-2,9.987069E-2,-1.1808282E-2],"categories":[],"categories_nodes":[],"categories_segments":[],"categories_sizes":[],"default_left":[0,0,0,0,0,0,0,0,0,0,0,0,0,0,0,0,0],"id":46,"left_children":[1,3,5,7,-1,9,-1,-1,11,-1,-1,13,-1,15,-1,-1,-1],"loss_changes":[1.322506E-1,1.8437114E-1,3.3325893E-1,1.8094966E-1,0E0,2.3192883E-2,0E0,0E0,9.608659E-2,0E0,0E0,1.5956834E-1,0E0,1.4680701E-1,0E0,0E0,0E0],"parents":[2147483647,0,0,1,1,2,2,3,3,5,5,8,8,11,11,13,13],"right_children":[2,4,6,8,-1,10,-1,-1,12,-1,-1,14,-1,16,-1,-1,-1],"split_conditions":[1E0,1E0,1E0,1E0,-6.1155308E-2,1E0,6.489034E-2,-4.645828E-2,1E0,-1.0595292E-1,-2.737103E-2,1E0,-6.7317127E-3,1E0,-2.5875987E-2,9.987069E-2,-1.1808282E-2],"split_indices":[147,964,310,314,0,33,0,0,53,0,0,754,0,479,0,0,0],"split_type":[0,0,0,0,0,0,0,0,0,0,0,0,0,0,0,0,0],"sum_hessian":[1.5665901E1,1.1499386E1,4.1665154E0,1.0264916E1,1.2344694E0,2.984425E0,1.1820904E0,1.3204596E0,8.944456E0,1.510414E0,1.4740111E0,6.985217E0,1.9592397E0,5.9578404E0,1.0273767E0,4.906264E0,1.0515765E0],"tree_param":{"num_deleted":"0","num_feature":"1024","num_nodes":"17","size_leaf_vector":"1"}},{"base_weights":[8.908239E-4,-2.7885221E-2,6.618938E-2,-8.0698006E-2,1.4593166E-1,-9.035315E-3,-1.01672806E-1,7.954837E-2,-1.5038286E-3,-7.368319E-2,8.120887E-2,1.3568103E-1,-1.5001835E-1,5.586958E-2,5.1776688E-3,-8.072524E-2,2.4291836E-2],"categories":[],"categories_nodes":[],"categories_segments":[],"categories_sizes":[],"default_left":[0,0,0,0,0,0,0,0,0,0,0,0,0,0,0,0,0],"id":47,"left_children":[1,3,-1,5,7,9,-1,-1,-1,11,-1,13,15,-1,-1,-1,-1],"loss_changes":[1.1065659E-1,1.5407239E-1,0E0,2.2884426E-1,7.274825E-2,2.1593066E-1,0E0,0E0,0E0,1.7360544E-1,0E0,1.5266649E-2,2.2811398E-1,0E0,0E0,0E0,0E0],"parents":[2147483647,0,0,1,1,3,3,4,4,5,5,9,9,11,11,12,12],"right_children":[2,4,-1,6,8,10,-1,-1,-1,12,-1,14,16,-1,-1,-1,-1],"split_conditions":[1E0,1E0,6.618938E-2,1E0,1E0,1E0,-1.01672806E-1,7.954837E-2,-1.5038286E-3,1E0,8.120887E-2,1E0,1E0,5.586958E-2,5.1776688E-3,-8.072524E-2,2.4291836E-2],"split_indices":[884,511,0,935,128,585,0,0,0,807,0,806,389,0,0,0,0],"split_type":[0,0,0,0,0,0,0,0,0,0,0,0,0,0,0,0,0],"sum_hessian":[1.5526956E1,1.4501071E1,1.0258843E0,1.1532691E1,2.9683802E0,9.837446E0,1.6952441E0,1.2356617E0,1.7327186E0,8.589051E0,1.2483953E0,2.0871613E0,6.5018897E0,1.0614495E0,1.0257118E0,4.1815658E0,2.3203242E0],"tree_param":{"num_deleted":"0","num_feature":"1024","num_nodes":"17","size_leaf_vector":"1"}},{"base_weights":[8.449349E-3,4.3068536E-2,-5.4179084E-2,-7.642196E-3,7.36618E-2,-7.5099796E-2,1.2516312E-1,-1.6811837E-1,8.186327E-2,2.8230286E-1,-4.907603E-2,-2.5642636E-1,6.158645E-2,1.2004372E-1,9.775411E-3,-1.14963576E-1,7.0089772E-3],"categories":[],"categories_nodes":[],"categories_segments":[],"categories_sizes":[],"default_left":[0,0,0,0,0,0,0,0,0,0,0,0,0,0,0,0,0],"id":48,"left_children":[1,3,-1,5,-1,7,9,11,-1,13,-1,15,-1,-1,-1,-1,-1],"loss_changes":[1.1458565E-1,1.5179464E-1,0E0,1.22697E-1,0E0,3.375675E-1,2.564874E-1,3.0752313E-1,0E0,8.6084396E-2,0E0,2.4647686E-1,0E0,0E0,0E0,0E0,0E0],"parents":[2147483647,0,0,1,1,3,3,5,5,6,6,7,7,9,9,11,11],"right_children":[2,4,-1,6,-1,8,10,12,-1,14,-1,16,-1,-1,-1,-1,-1],"split_conditions":[1E0,1E0,-5.4179084E-2,1E0,7.36618E-2,1E0,1E0,1E0,8.186327E-2,1E0,-4.907603E-2,1E0,6.158645E-2,1.2004372E-1,9.775411E-3,-1.14963576E-1,7.0089772E-3],"split_indices":[946,451,0,136,0,695,831,573,0,233,0,286,0,0,0,0,0],"split_type":[0,0,0,0,0,0,0,0,0,0,0,0,0,0,0,0,0],"sum_hessian":[1.531989E1,1.3601321E1,1.7185682E0,1.164658E1,1.9547414E0,8.011635E0,3.6349454E0,6.7296004E0,1.2820343E0,2.3683822E0,1.2665632E0,5.6958504E0,1.0337498E0,1.1998023E0,1.16858E0,3.6652942E0,2.0305564E0],"tree_param":{"num_deleted":"0","num_feature":"1024","num_nodes":"17","size_leaf_vector":"1"}},{"base_weights":[1.436273E-2,-1.5563743E-2,6.878159E-2,3.0307354E-2,-7.88115E-2,8.518188E-2,-1.7671016E-1,-9.755898E-3,1.222335E-1,-9.782764E-2,1.9275056E-2,-5.9122056E-2,6.2829606E-2,-4.2354964E-2,2.99078E-2],"categories":[],"categories_nodes":[],"categories_segments":[],"categories_sizes":[],"default_left":[0,0,0,0,0,0,0,0,0,0,0,0,0,0,0],"id":49,"left_children":[1,3,-1,5,-1,7,9,11,-1,-1,-1,13,-1,-1,-1],"loss_changes":[1.0694298E-1,1.7852193E-1,0E0,1.6939263E-1,0E0,3.5319445E-1,1.3512824E-1,1.1835206E-1,0E0,0E0,0E0,1.2841019E-1,0E0,0E0,0E0],"parents":[2147483647,0,0,1,1,3,3,5,5,6,6,7,7,11,11],"right_children":[2,4,-1,6,-1,8,10,12,-1,-1,-1,14,-1,-1,-1],"split_conditions":[1E0,1E0,6.878159E-2,1E0,-7.88115E-2,1E0,1E0,1E0,1.222335E-1,-9.782764E-2,1.9275056E-2,1E0,6.2829606E-2,-4.2354964E-2,2.99078E-2],"split_indices":[1009,322,0,315,0,112,488,585,0,0,0,511,0,0,0],"split_type":[0,0,0,0,0,0,0,0,0,0,0,0,0,0,0],"sum_hessian":[1.5073241E1,1.4045027E1,1.0282139E0,1.2586293E1,1.4587338E0,1.0414287E1,2.1720066E0,8.79348E0,1.6208069E0,1.1226958E0,1.0493107E0,7.7730727E0,1.020407E0,5.198154E0,2.574919E0],"tree_param":{"num_deleted":"0","num_feature":"1024","num_nodes":"15","size_leaf_vector":"1"}},{"base_weights":[1.5737802E-2,4.5828547E-2,-4.524248E-2,8.100263E-2,-4.5591842E-2,1.2366548E-1,-4.691703E-2,4.4699118E-2,8.650821E-2,1.07604556E-1,-5.476844E-2,-8.018411E-3,9.5615014E-2],"categories":[],"categories_nodes":[],"categories_segments":[],"categories_sizes":[],"default_left":[0,0,0,0,0,0,0,0,0,0,0,0,0],"id":50,"left_children":[1,3,-1,5,-1,7,-1,9,-1,11,-1,-1,-1],"loss_changes":[8.643377E-2,1.1115311E-1,0E0,1.4810678E-1,0E0,1.3453592E-1,0E0,1.4609854E-1,0E0,2.228296E-1,0E0,0E0,0E0],"parents":[2147483647,0,0,1,1,3,3,5,5,7,7,9,9],"right_children":[2,4,-1,6,-1,8,-1,10,-1,12,-1,-1,-1],"split_conditions":[1E0,1E0,-4.524248E-2,1E0,-4.5591842E-2,1E0,-4.691703E-2,1E0,8.650821E-2,1E0,-5.476844E-2,-8.018411E-3,9.5615014E-2],"split_indices":[946,431,0,715,0,843,0,754,0,583,0,0,0],"split_type":[0,0,0,0,0,0,0,0,0,0,0,0,0],"sum_hessian":[1.4868005E1,1.3206709E1,1.6612954E0,1.1714127E1,1.492583E0,1.0335719E1,1.3784077E0,7.8454623E0,2.490256E0,6.557006E0,1.2884564E0,4.5409513E0,2.0160549E0],"tree_param":{"num_deleted":"0","num_feature":"1024","num_nodes":"13","size_leaf_vector":"1"}},{"base_weights":[1.0058166E-2,4.3355975E-2,-4.452738E-2,-6.734509E-3,7.895833E-2,4.2862732E-2,-8.18809E-2,-5.071108E-2,1.9263019E-1,-1.708536E-1,1.8285033E-1,-6.2407996E-3,8.876202E-2,-7.433934E-2,2.5860327E-3,7.137471E-2,1.2553356E-2],"categories":[],"categories_nodes":[],"categories_segments":[],"categories_sizes":[],"default_left":[0,0,0,0,0,0,0,0,0,0,0,0,0,0,0,0,0],"id":51,"left_children":[1,3,-1,5,-1,7,-1,9,11,13,15,-1,-1,-1,-1,-1,-1],"loss_changes":[8.969772E-2,1.5387312E-1,0E0,1.7309567E-1,0E0,1.6629106E-1,0E0,2.463414E-1,1.0538529E-1,7.917571E-2,1.4012121E-2,0E0,0E0,0E0,0E0,0E0,0E0],"parents":[2147483647,0,0,1,1,3,3,5,5,7,7,8,8,9,9,10,10],"right_children":[2,4,-1,6,-1,8,-1,10,12,14,16,-1,-1,-1,-1,-1,-1],"split_conditions":[1E0,1E0,-4.452738E-2,1E0,7.895833E-2,1E0,-8.18809E-2,1E0,1E0,1E0,1E0,-6.2407996E-3,8.876202E-2,-7.433934E-2,2.5860327E-3,7.137471E-2,1.2553356E-2],"split_indices":[964,954,0,750,0,33,0,578,378,896,501,0,0,0,0,0,0],"split_type":[0,0,0,0,0,0,0,0,0,0,0,0,0,0,0,0,0],"sum_hessian":[1.4778014E1,1.2812493E1,1.965521E0,1.1224372E1,1.5881219E0,1.0168768E1,1.0556042E0,6.665564E0,3.5032036E0,4.5787625E0,2.0868013E0,1.4024508E0,2.1007528E0,2.938342E0,1.6404204E0,1.0064777E0,1.0803237E0],"tree_param":{"num_deleted":"0","num_feature":"1024","num_nodes":"17","size_leaf_vector":"1"}},{"base_weights":[1.0363763E-2,-3.016235E-2,1.4185977E-1,1.6134882E-2,-6.0069043E-2,6.352962E-2,-6.3446728E-3,6.942005E-2,-5.8283E-2,-6.452441E-2,2.4504952E-1,-1.3751581E-1,3.7672758E-2,1.2769759E-1,-8.604753E-3,8.415334E-3,-1.09305196E-1],"categories":[],"categories_nodes":[],"categories_segments":[],"categories_sizes":[],"default_left":[0,0,0,0,0,0,0,0,0,0,0,0,0,0,0,0,0],"id":52,"left_children":[1,3,5,7,-1,-1,-1,9,-1,11,13,15,-1,-1,-1,-1,-1],"loss_changes":[8.694778E-2,1.0309225E-1,4.8122168E-2,1.3563421E-1,0E0,0E0,0E0,2.3764443E-1,0E0,1.02484204E-1,2.2422415E-1,1.9480331E-1,0E0,0E0,0E0,0E0,0E0],"parents":[2147483647,0,0,1,1,2,2,3,3,7,7,9,9,10,10,11,11],"right_children":[2,4,6,8,-1,-1,-1,10,-1,12,14,16,-1,-1,-1,-1,-1],"split_conditions":[1E0,1E0,1E0,1E0,-6.0069043E-2,6.352962E-2,-6.3446728E-3,1E0,-5.8283E-2,1E0,1E0,1E0,3.7672758E-2,1.2769759E-1,-8.604753E-3,8.415334E-3,-1.09305196E-1],"split_indices":[511,935,10,946,0,0,0,136,0,745,695,260,0,0,0,0,0],"split_type":[0,0,0,0,0,0,0,0,0,0,0,0,0,0,0,0,0],"sum_hessian":[1.4512969E1,1.1682981E1,2.8299882E0,9.894536E0,1.7884443E0,1.7712779E0,1.0587103E0,8.429821E0,1.464715E0,5.141357E0,3.2884643E0,3.914825E0,1.226532E0,1.6468494E0,1.6416148E0,2.7696166E0,1.1452084E0],"tree_param":{"num_deleted":"0","num_feature":"1024","num_nodes":"17","size_leaf_vector":"1"}},{"base_weights":[7.252317E-3,-1.8552875E-2,5.4470684E-2,-8.831546E-2,8.8320225E-2,-1.5469214E-1,8.694813E-2,1.6006564E-1,-2.3664763E-2,-2.0637803E-1,1.5891535E-2,6.9030225E-2,-3.0263841E-2,7.78143E-2,-1.9974027E-2,-3.1790563E-1,9.493209E-4,-1.2322631E-1,-2.6171682E-2],"categories":[],"categories_nodes":[],"categories_segments":[],"categories_sizes":[],"default_left":[0,0,0,0,0,0,0,0,0,0,0,0,0,0,0,0,0,0,0],"id":53,"left_children":[1,3,-1,5,7,9,11,13,-1,15,-1,-1,-1,-1,-1,17,-1,-1,-1],"loss_changes":[7.227651E-2,1.14049755E-1,0E0,1.1957468E-1,8.614208E-2,8.5811585E-2,1.07802734E-1,1.21226884E-1,0E0,1.3632366E-1,0E0,0E0,0E0,0E0,0E0,4.531175E-2,0E0,0E0,0E0],"parents":[2147483647,0,0,1,1,3,3,4,4,5,5,6,6,7,7,9,9,15,15],"right_children":[2,4,-1,6,8,10,12,14,-1,16,-1,-1,-1,-1,-1,18,-1,-1,-1],"split_conditions":[1E0,1E0,5.4470684E-2,1E0,1E0,1E0,1E0,1E0,-2.3664763E-2,1E0,1.5891535E-2,6.9030225E-2,-3.0263841E-2,7.78143E-2,-1.9974027E-2,1E0,9.493209E-4,-1.2322631E-1,-2.6171682E-2],"split_indices":[840,428,0,816,745,451,53,184,0,33,0,0,0,0,0,745,0,0,0],"split_type":[0,0,0,0,0,0,0,0,0,0,0,0,0,0,0,0,0,0,0],"sum_hessian":[1.431874E1,1.325072E1,1.0680199E0,8.122385E0,5.1283345E0,5.9763627E0,2.1460228E0,3.6183946E0,1.5099398E0,4.79029E0,1.1860727E0,1.090123E0,1.0558997E0,2.4154983E0,1.2028962E0,2.788818E0,2.001472E0,1.4317701E0,1.3570477E0],"tree_param":{"num_deleted":"0","num_feature":"1024","num_nodes":"19","size_leaf_vector":"1"}},{"base_weights":[4.6310383E-3,3.781904E-2,-4.4726636E-2,-9.767885E-3,7.3375896E-2,3.769855E-2,-7.637876E-2,-1.0688228E-2,7.298035E-2,-6.96281E-2,5.753248E-2,2.5839207E-3,-9.102978E-2],"categories":[],"categories_nodes":[],"categories_segments":[],"categories_sizes":[],"default_left":[0,0,0,0,0,0,0,0,0,0,0,0,0],"id":54,"left_children":[1,3,-1,5,-1,7,-1,9,-1,11,-1,-1,-1],"loss_changes":[8.334148E-2,1.3349105E-1,0E0,1.4664504E-1,0E0,1.09517515E-1,0E0,1.2861276E-1,0E0,1.528845E-1,0E0,0E0,0E0],"parents":[2147483647,0,0,1,1,3,3,5,5,7,7,9,9],"right_children":[2,4,-1,6,-1,8,-1,10,-1,12,-1,-1,-1],"split_conditions":[1E0,1E0,-4.4726636E-2,1E0,7.3375896E-2,1E0,-7.637876E-2,1E0,7.298035E-2,1E0,5.753248E-2,2.5839207E-3,-9.102978E-2],"split_indices":[964,954,0,750,0,202,0,86,0,935,0,0,0],"split_type":[0,0,0,0,0,0,0,0,0,0,0,0,0],"sum_hessian":[1.423096E1,1.2324157E1,1.9068027E0,1.0792948E1,1.5312086E0,9.748887E0,1.0440614E0,8.6587925E0,1.0900947E0,7.214612E0,1.44418E0,6.127309E0,1.0873032E0],"tree_param":{"num_deleted":"0","num_feature":"1024","num_nodes":"13","size_leaf_vector":"1"}},{"base_weights":[2.8881738E-3,-3.7197758E-2,1.3538338E-1,-8.539814E-2,1.1342601E-1,7.133782E-2,7.1246235E-4,-1.7330156E-1,4.935345E-2,1.0267741E-1,-4.5103054E-2,-3.2131236E-2,-1.3248855E-1,-2.513233E-2,5.3601865E-2,-1.5805231E-1,4.009484E-2,-6.2547766E-2,-7.7757593E-3],"categories":[],"categories_nodes":[],"categories_segments":[],"categories_sizes":[],"default_left":[0,0,0,0,0,0,0,0,0,0,0,0,0,0,0,0,0,0,0],"id":55,"left_children":[1,3,5,7,9,-1,-1,11,13,-1,-1,15,-1,-1,-1,17,-1,-1,-1],"loss_changes":[8.501163E-2,9.931154E-2,5.001246E-2,1.260876E-1,2.5801927E-1,0E0,0E0,2.2168201E-1,9.58104E-2,0E0,0E0,1.2881234E-1,0E0,0E0,0E0,1.718954E-2,0E0,0E0,0E0],"parents":[2147483647,0,0,1,1,2,2,3,3,4,4,7,7,8,8,11,11,15,15],"right_children":[2,4,6,8,10,-1,-1,12,14,-1,-1,16,-1,-1,-1,18,-1,-1,-1],"split_conditions":[1E0,1E0,1E0,1E0,1E0,7.133782E-2,7.1246235E-4,1E0,1E0,1.0267741E-1,-4.5103054E-2,1E0,-1.3248855E-1,-2.513233E-2,5.3601865E-2,1E0,4.009484E-2,-6.2547766E-2,-7.7757593E-3],"split_indices":[511,451,128,792,695,0,0,289,53,0,0,501,0,0,0,926,0,0,0],"split_type":[0,0,0,0,0,0,0,0,0,0,0,0,0,0,0,0,0,0,0],"sum_hessian":[1.4057947E1,1.1344855E1,2.7130919E0,8.922611E0,2.4222448E0,1.0877684E0,1.6253234E0,5.2268577E0,3.6957533E0,1.1376859E0,1.284559E0,4.1586723E0,1.0681856E0,1.994601E0,1.7011522E0,2.3899615E0,1.7687106E0,1.3114381E0,1.0785234E0],"tree_param":{"num_deleted":"0","num_feature":"1024","num_nodes":"19","size_leaf_vector":"1"}},{"base_weights":[1.498651E-3,3.3049915E-2,-4.770621E-2,-2.4940124E-2,7.407118E-2,1.3437668E-2,-5.8745638E-2,-8.463782E-2,1.475477E-1,-1.5562831E-1,4.3533683E-2,2.9182887E-1,-3.572621E-2,-7.525455E-2,2.603242E-2,1.2143283E-1,1.714255E-2],"categories":[],"categories_nodes":[],"categories_segments":[],"categories_sizes":[],"default_left":[0,0,0,0,0,0,0,0,0,0,0,0,0,0,0,0,0],"id":56,"left_children":[1,3,-1,5,-1,7,-1,9,11,13,-1,15,-1,-1,-1,-1,-1],"loss_changes":[8.0280386E-2,1.699569E-1,0E0,7.672824E-2,0E0,1.4615287E-1,0E0,1.2868461E-1,2.1391475E-1,1.4761281E-1,0E0,6.4655006E-2,0E0,0E0,0E0,0E0,0E0],"parents":[2147483647,0,0,1,1,3,3,5,5,7,7,8,8,9,9,11,11],"right_children":[2,4,-1,6,-1,8,-1,10,12,14,-1,16,-1,-1,-1,-1,-1],"split_conditions":[1E0,1E0,-4.770621E-2,1E0,7.407118E-2,1E0,-5.8745638E-2,1E0,1E0,1E0,4.3533683E-2,1E0,-3.572621E-2,-7.525455E-2,2.603242E-2,1.2143283E-1,1.714255E-2],"split_indices":[114,81,0,322,0,656,0,840,289,428,0,589,0,0,0,0,0],"split_type":[0,0,0,0,0,0,0,0,0,0,0,0,0,0,0,0,0],"sum_hessian":[1.3813597E1,1.2208109E1,1.6054876E0,1.0298798E1,1.909311E0,9.162374E0,1.1364244E0,5.505246E0,3.6571271E0,4.4521847E0,1.0530616E0,2.311723E0,1.3454041E0,3.1715167E0,1.280668E0,1.0713626E0,1.2403604E0],"tree_param":{"num_deleted":"0","num_feature":"1024","num_nodes":"17","size_leaf_vector":"1"}},{"base_weights":[5.6712767E-3,-3.7145402E-2,1.4440157E-1,-7.527857E-2,5.1491827E-2,6.03271E-2,-4.47255E-5,-1.2544882E-1,2.9361285E-2,-2.1083899E-1,5.7413105E-2,-3.4031424E-1,5.8776416E-2,-1.3989846E-1,-3.9820885E-3,-2.601685E-2,5.275346E-2],"categories":[],"categories_nodes":[],"categories_segments":[],"categories_sizes":[],"default_left":[0,0,0,0,0,0,0,0,0,0,0,0,0,0,0,0,0],"id":57,"left_children":[1,3,5,7,-1,-1,-1,9,-1,11,-1,13,15,-1,-1,-1,-1],"loss_changes":[9.249227E-2,1.0849344E-1,3.0054212E-2,1.0649137E-1,0E0,0E0,0E0,2.7969941E-1,0E0,2.798869E-1,0E0,2.0715237E-1,7.091457E-2,0E0,0E0,0E0,0E0],"parents":[2147483647,0,0,1,1,2,2,3,3,7,7,9,9,11,11,12,12],"right_children":[2,4,6,8,-1,-1,-1,10,-1,12,-1,14,16,-1,-1,-1,-1],"split_conditions":[1E0,1E0,1E0,1E0,5.1491827E-2,6.03271E-2,-4.47255E-5,1E0,2.9361285E-2,1E0,5.7413105E-2,1E0,1E0,-1.3989846E-1,-3.9820885E-3,-2.601685E-2,5.275346E-2],"split_indices":[511,585,96,286,0,0,0,607,0,389,0,694,896,0,0,0,0],"split_type":[0,0,0,0,0,0,0,0,0,0,0,0,0,0,0,0,0],"sum_hessian":[1.3668157E1,1.1004162E1,2.6639948E0,9.8454075E0,1.1587545E0,1.6325952E0,1.0313996E0,7.8471704E0,1.9982373E0,6.444729E0,1.4024414E0,4.1767435E0,2.267985E0,2.7075708E0,1.469173E0,1.1267763E0,1.1412086E0],"tree_param":{"num_deleted":"0","num_feature":"1024","num_nodes":"17","size_leaf_vector":"1"}},{"base_weights":[9.210411E-3,4.4692926E-2,-1.3019478E-1,-9.25131E-3,8.186995E-2,-9.433246E-2,3.581202E-2,4.0048897E-2,-6.533924E-2,-2.7723467E-2,8.086941E-2,-1.361246E-1,1.2661994E-1,1.1248763E-2,-8.947543E-2,-2.4960337E-2,7.413074E-2],"categories":[],"categories_nodes":[],"categories_segments":[],"categories_sizes":[],"default_left":[0,0,0,0,0,0,0,0,0,0,0,0,0,0,0,0,0],"id":58,"left_children":[1,3,5,7,-1,-1,-1,9,-1,11,-1,13,15,-1,-1,-1,-1],"loss_changes":[7.725085E-2,1.5339684E-1,1.8401046E-1,1.2058064E-1,0E0,0E0,0E0,1.574867E-1,0E0,1.5697925E-1,0E0,1.6285631E-1,1.20769106E-1,0E0,0E0,0E0,0E0],"parents":[2147483647,0,0,1,1,2,2,3,3,7,7,9,9,11,11,12,12],"right_children":[2,4,6,8,-1,-1,-1,10,-1,12,-1,14,16,-1,-1,-1,-1],"split_conditions":[1E0,1E0,1E0,1E0,8.186995E-2,-9.433246E-2,3.581202E-2,1E0,-6.533924E-2,1E0,8.086941E-2,1E0,1E0,1.1248763E-2,-8.947543E-2,-2.4960337E-2,7.413074E-2],"split_indices":[315,954,488,887,0,0,0,725,0,80,0,378,893,0,0,0,0],"split_type":[0,0,0,0,0,0,0,0,0,0,0,0,0,0,0,0,0],"sum_hessian":[1.3441086E1,1.1255619E1,2.185467E0,9.879689E0,1.3759298E0,1.1077298E0,1.0777371E0,8.644173E0,1.2355168E0,7.3523498E0,1.2918231E0,4.388314E0,2.9640357E0,2.490249E0,1.898065E0,1.1940404E0,1.7699953E0],"tree_param":{"num_deleted":"0","num_feature":"1024","num_nodes":"17","size_leaf_vector":"1"}},{"base_weights":[7.2075822E-3,3.990545E-2,-4.1995168E-2,9.118106E-2,-8.776711E-2,-4.0415898E-2,1.358116E-1,-7.127925E-2,2.8502302E-2,1.7703392E-1,-2.3665853E-2,2.2645333E-1,-6.3718664E-3,8.74889E-2,7.0975376E-3],"categories":[],"categories_nodes":[],"categories_segments":[],"categories_sizes":[],"default_left":[0,0,0,0,0,0,0,0,0,0,0,0,0,0,0],"id":59,"left_children":[1,3,-1,5,7,-1,9,-1,-1,11,-1,13,-1,-1,-1],"loss_changes":[7.436556E-2,8.9646436E-2,0E0,1.1295003E-1,1.3438946E-1,0E0,8.775489E-2,0E0,0E0,7.6366246E-2,0E0,7.149908E-2,0E0,0E0,0E0],"parents":[2147483647,0,0,1,1,3,3,4,4,6,6,9,9,11,11],"right_children":[2,4,-1,6,8,-1,10,-1,-1,12,-1,14,-1,-1,-1],"split_conditions":[1E0,1E0,-4.1995168E-2,1E0,1E0,-4.0415898E-2,1E0,-7.127925E-2,2.8502302E-2,1E0,-2.3665853E-2,1E0,-6.3718664E-3,8.74889E-2,7.0975376E-3],"split_indices":[964,147,0,314,695,0,855,0,0,333,0,53,0,0,0],"split_type":[0,0,0,0,0,0,0,0,0,0,0,0,0,0,0],"sum_hessian":[1.3290801E1,1.1471377E1,1.8194231E0,8.388304E0,3.0830739E0,1.050841E0,7.337463E0,1.5293974E0,1.5536766E0,6.3027515E0,1.0347112E0,4.9314637E0,1.3712878E0,3.4005184E0,1.5309455E0],"tree_param":{"num_deleted":"0","num_feature":"1024","num_nodes":"15","size_leaf_vector":"1"}},{"base_weights":[8.9050265E-4,-4.0585402E-2,1.362061E-1,-9.332536E-2,1.2502429E-1,6.787536E-2,2.9514607E-3,-1.7202054E-1,6.983554E-2,9.9572845E-2,-3.7054386E-2,-2.444435E-1,3.4085713E-2,7.560716E-2,-2.9384146E-2,-3.344497E-1,2.6653036E-3,-1.440629E-1,-2.1103855E-2],"categories":[],"categories_nodes":[],"categories_segments":[],"categories_sizes":[],"default_left":[0,0,0,0,0,0,0,0,0,0,0,0,0,0,0,0,0,0,0],"id":60,"left_children":[1,3,5,7,9,-1,-1,11,13,-1,-1,15,-1,-1,-1,17,-1,-1,-1],"loss_changes":[8.512234E-2,1.1320629E-1,3.8245335E-2,1.3257968E-1,2.0735563E-1,0E0,0E0,1.6479045E-1,1.3982108E-1,0E0,0E0,1.3068092E-1,0E0,0E0,0E0,1.2630653E-1,0E0,0E0,0E0],"parents":[2147483647,0,0,1,1,2,2,3,3,4,4,7,7,8,8,11,11,15,15],"right_children":[2,4,6,8,10,-1,-1,12,14,-1,-1,16,-1,-1,-1,18,-1,-1,-1],"split_conditions":[1E0,1E0,1E0,1E0,1E0,6.787536E-2,2.9514607E-3,1E0,1E0,9.9572845E-2,-3.7054386E-2,1E0,3.4085713E-2,7.560716E-2,-2.9384146E-2,1E0,2.6653036E-3,-1.440629E-1,-2.1103855E-2],"split_indices":[511,451,128,896,695,0,0,695,695,0,0,954,0,0,0,10,0,0,0],"split_type":[0,0,0,0,0,0,0,0,0,0,0,0,0,0,0,0,0,0,0],"sum_hessian":[1.3182033E1,1.0625312E1,2.5567207E0,8.389934E0,2.235379E0,1.0313805E0,1.5253402E0,5.623383E0,2.76655E0,1.0368534E0,1.1985254E0,4.6010313E0,1.022352E0,1.0856273E0,1.6809229E0,3.1585782E0,1.4424529E0,1.5080278E0,1.6505504E0],"tree_param":{"num_deleted":"0","num_feature":"1024","num_nodes":"19","size_leaf_vector":"1"}},{"base_weights":[3.955224E-3,3.443072E-2,-4.4072535E-2,-5.3968556E-2,1.7536533E-1,5.49018E-2,-2.1374826E-1,2.4718294E-1,-6.1417874E-3,-1.7105848E-2,5.8894344E-2,-8.471247E-2,-1.5862463E-2,-1.1160783E-3,1.09334156E-1,-3.3302654E-2,2.2203833E-2],"categories":[],"categories_nodes":[],"categories_segments":[],"categories_sizes":[],"default_left":[0,0,0,0,0,0,0,0,0,0,0,0,0,0,0,0,0],"id":61,"left_children":[1,3,-1,5,7,9,11,13,-1,15,-1,-1,-1,-1,-1,-1,-1],"loss_changes":[6.912383E-2,1.6398454E-1,0E0,1.5762351E-1,7.5610235E-2,6.225145E-2,2.484791E-2,1.11590475E-1,0E0,4.887635E-2,0E0,0E0,0E0,0E0,0E0,0E0,0E0],"parents":[2147483647,0,0,1,1,3,3,4,4,5,5,6,6,7,7,9,9],"right_children":[2,4,-1,6,8,10,12,14,-1,16,-1,-1,-1,-1,-1,-1,-1],"split_conditions":[1E0,1E0,-4.4072535E-2,1E0,1E0,1E0,1E0,1E0,-6.1417874E-3,1E0,5.8894344E-2,-8.471247E-2,-1.5862463E-2,-1.1160783E-3,1.09334156E-1,-3.3302654E-2,2.2203833E-2],"split_indices":[114,428,0,80,964,725,36,33,0,578,0,0,0,0,0,0,0],"split_type":[0,0,0,0,0,0,0,0,0,0,0,0,0,0,0,0,0],"sum_hessian":[1.293445E1,1.1402785E1,1.531665E0,7.3866673E0,4.016118E0,4.783611E0,2.6030562E0,2.746677E0,1.269441E0,3.7520795E0,1.0315315E0,1.2952547E0,1.3078016E0,1.1832415E0,1.5634354E0,1.7403052E0,2.0117743E0],"tree_param":{"num_deleted":"0","num_feature":"1024","num_nodes":"17","size_leaf_vector":"1"}},{"base_weights":[3.3626514E-3,-3.7788473E-2,1.350699E-1,-8.715119E-2,1.1811986E-1,6.219143E-2,6.7862025E-3,-9.26247E-3,-2.275319E-1,5.9556242E-2,-3.8045929E-3,-1.0793314E-1,6.1981328E-2,-1.2107678E-1,1.1484255E-2,-1.8506205E-1,3.071899E-2,-9.118646E-2,-7.3815794E-3],"categories":[],"categories_nodes":[],"categories_segments":[],"categories_sizes":[],"default_left":[0,0,0,0,0,0,0,0,0,0,0,0,0,0,0,0,0,0,0],"id":62,"left_children":[1,3,5,7,9,-1,-1,11,13,-1,-1,15,-1,-1,-1,17,-1,-1,-1],"loss_changes":[7.9968534E-2,9.730546E-2,2.3796633E-2,9.8076686E-2,3.557517E-2,0E0,0E0,1.7002103E-1,1.6647696E-1,0E0,0E0,1.0682043E-1,0E0,0E0,0E0,7.492417E-2,0E0,0E0,0E0],"parents":[2147483647,0,0,1,1,2,2,3,3,4,4,7,7,8,8,11,11,15,15],"right_children":[2,4,6,8,10,-1,-1,12,14,-1,-1,16,-1,-1,-1,18,-1,-1,-1],"split_conditions":[1E0,1E0,1E0,1E0,1E0,6.219143E-2,6.7862025E-3,1E0,1E0,5.9556242E-2,-3.8045929E-3,1E0,6.1981328E-2,-1.2107678E-1,1.1484255E-2,1E0,3.071899E-2,-9.118646E-2,-7.3815794E-3],"split_indices":[511,451,128,656,79,0,0,745,389,0,0,926,0,0,0,80,0,0,0],"split_type":[0,0,0,0,0,0,0,0,0,0,0,0,0,0,0,0,0,0,0],"sum_hessian":[1.2812879E1,1.0305939E1,2.50694E0,8.162568E0,2.143371E0,1.0127995E0,1.4941405E0,5.9353714E0,2.227196E0,1.006795E0,1.1365759E0,4.4165916E0,1.51878E0,1.0279958E0,1.1992003E0,3.319463E0,1.0971287E0,1.392994E0,1.9264688E0],"tree_param":{"num_deleted":"0","num_feature":"1024","num_nodes":"19","size_leaf_vector":"1"}},{"base_weights":[2.7339386E-3,-3.7531734E-2,1.1046487E-1,4.4772666E-2,-8.293249E-2,-1.5639588E-2,5.797728E-2,1.2136608E-1,-1.121675E-1,2.1242993E-1,-3.6603246E-2,-6.0148094E-2,1.246529E-2,2.675545E-1,1.3409193E-2,1.01237215E-1,2.9295694E-2],"categories":[],"categories_nodes":[],"categories_segments":[],"categories_sizes":[],"default_left":[0,0,0,0,0,0,0,0,0,0,0,0,0,0,0,0,0],"id":63,"left_children":[1,3,5,7,-1,-1,-1,9,11,13,-1,-1,-1,15,-1,-1,-1],"loss_changes":[6.317399E-2,2.2182684E-1,6.332793E-2,1.1919145E-1,0E0,0E0,0E0,1.6737892E-1,5.4498404E-2,3.4361184E-2,0E0,0E0,0E0,9.44522E-3,0E0,0E0,0E0],"parents":[2147483647,0,0,1,1,2,2,3,3,7,7,8,8,9,9,13,13],"right_children":[2,4,6,8,-1,-1,-1,10,12,14,-1,-1,-1,16,-1,-1,-1],"split_conditions":[1E0,1E0,1E0,1E0,-8.293249E-2,-1.5639588E-2,5.797728E-2,1E0,1E0,1E0,-3.6603246E-2,-6.0148094E-2,1.246529E-2,1E0,1.3409193E-2,1.01237215E-1,2.9295694E-2],"split_indices":[157,656,580,147,0,0,0,855,33,53,0,0,0,378,0,0,0],"split_type":[0,0,0,0,0,0,0,0,0,0,0,0,0,0,0,0,0],"sum_hessian":[1.2607648E1,9.651795E0,2.955853E0,7.783111E0,1.868684E0,1.1222316E0,1.8336215E0,5.3827667E0,2.4003441E0,4.0096436E0,1.3731235E0,1.331168E0,1.0691761E0,2.569924E0,1.4397193E0,1.1220807E0,1.4478434E0],"tree_param":{"num_deleted":"0","num_feature":"1024","num_nodes":"17","size_leaf_vector":"1"}},{"base_weights":[3.273062E-3,-3.4807E-2,1.2281944E-1,-6.7630745E-2,4.33893E-2,3.7052662E-3,5.5207185E-2,-1.0838706E-1,3.775032E-2,-2.487906E-2,-7.568754E-2,8.179288E-2,-6.7764215E-2,6.0828373E-2,-3.5047263E-2],"categories":[],"categories_nodes":[],"categories_segments":[],"categories_sizes":[],"default_left":[0,0,0,0,0,0,0,0,0,0,0,0,0,0,0],"id":64,"left_children":[1,3,5,7,-1,-1,-1,9,-1,11,-1,13,-1,-1,-1],"loss_changes":[6.577613E-2,7.4718215E-2,2.1286968E-2,9.250144E-2,0E0,0E0,0E0,9.9457346E-2,0E0,1.6163974E-1,0E0,1.4613171E-1,0E0,0E0,0E0],"parents":[2147483647,0,0,1,1,2,2,3,3,7,7,9,9,11,11],"right_children":[2,4,6,8,-1,-1,-1,10,-1,12,-1,14,-1,-1,-1],"split_conditions":[1E0,1E0,1E0,1E0,4.33893E-2,3.7052662E-3,5.5207185E-2,1E0,3.775032E-2,1E0,-7.568754E-2,1E0,-6.7764215E-2,6.0828373E-2,-3.5047263E-2],"split_indices":[511,585,333,736,0,0,0,656,0,147,0,184,0,0,0],"split_type":[0,0,0,0,0,0,0,0,0,0,0,0,0,0,0],"sum_hessian":[1.25098095E1,1.0025233E1,2.4845765E0,9.001694E0,1.0235403E0,1.3142579E0,1.1703186E0,7.798568E0,1.2031256E0,5.677055E0,2.1215127E0,4.096244E0,1.5808109E0,2.5327811E0,1.563463E0],"tree_param":{"num_deleted":"0","num_feature":"1024","num_nodes":"15","size_leaf_vector":"1"}},{"base_weights":[3.886153E-3,3.3731744E-2,-3.7608847E-2,-8.3758375E-3,7.113113E-2,-7.053091E-2,6.0784455E-2,-4.560541E-3,6.316913E-2,-1.2468409E-1,1.3608393E-1,-5.895155E-2,4.5962236E-3,6.157879E-2,-8.5255345E-3],"categories":[],"categories_nodes":[],"categories_segments":[],"categories_sizes":[],"default_left":[0,0,0,0,0,0,0,0,0,0,0,0,0,0,0],"id":65,"left_children":[1,3,-1,5,-1,-1,7,9,-1,11,13,-1,-1,-1,-1],"loss_changes":[5.5934437E-2,1.0198503E-1,0E0,1.8113442E-1,0E0,0E0,8.853477E-2,1.3875514E-1,0E0,4.7352552E-2,4.906401E-2,0E0,0E0,0E0,0E0],"parents":[2147483647,0,0,1,1,3,3,6,6,7,7,9,9,10,10],"right_children":[2,4,-1,6,-1,-1,8,10,-1,12,14,-1,-1,-1,-1],"split_conditions":[1E0,1E0,-3.7608847E-2,1E0,7.113113E-2,-7.053091E-2,1E0,1E0,6.316913E-2,1E0,1E0,-5.895155E-2,4.5962236E-3,6.157879E-2,-8.5255345E-3],"split_indices":[964,871,0,726,0,0,511,745,0,843,754,0,0,0,0],"split_type":[0,0,0,0,0,0,0,0,0,0,0,0,0,0,0],"sum_hessian":[1.2403908E1,1.0677358E1,1.7265502E0,9.640198E0,1.0371596E0,1.6924548E0,7.947743E0,6.2086253E0,1.7391176E0,3.409809E0,2.798816E0,1.9869592E0,1.42285E0,1.7958306E0,1.0029854E0],"tree_param":{"num_deleted":"0","num_feature":"1024","num_nodes":"15","size_leaf_vector":"1"}},{"base_weights":[4.726415E-3,3.978548E-2,-4.816766E-2,-1.7013136E-2,7.029934E-2,3.0806242E-2,-6.1010167E-2,7.6781E-2,-2.6685704E-2,1.620069E-1,-4.1755598E-2,-1.5141976E-2,1.0247457E-1],"categories":[],"categories_nodes":[],"categories_segments":[],"categories_sizes":[],"default_left":[0,0,0,0,0,0,0,0,0,0,0,0,0],"id":66,"left_children":[1,3,-1,5,-1,7,-1,9,-1,11,-1,-1,-1],"loss_changes":[8.3071284E-2,1.3347998E-1,0E0,9.5405124E-2,0E0,5.544003E-2,0E0,1.4985144E-1,0E0,2.2410138E-1,0E0,0E0,0E0],"parents":[2147483647,0,0,1,1,3,3,5,5,7,7,9,9],"right_children":[2,4,-1,6,-1,8,-1,10,-1,12,-1,-1,-1],"split_conditions":[1E0,1E0,-4.816766E-2,1E0,7.029934E-2,1E0,-6.1010167E-2,1E0,-2.6685704E-2,1E0,-4.1755598E-2,-1.5141976E-2,1.0247457E-1],"split_indices":[114,81,0,980,0,147,0,695,0,578,0,0,0],"split_type":[0,0,0,0,0,0,0,0,0,0,0,0,0],